svm_type c_svc
kernel_type rbf
gamma 0.25
nr_class 3
total_sv 23588
rho 1.01137 -0.597684 -0.0504123
label 2 1 3
nr_sv 11829 7398 4361
SV
0 1 1:0.090706 2:0.178459 3:0.564286 4:0.133333 
0 1 1:0.094403 2:0.183612 3:0.628571 4:0.133333 
0 1 1:0.055045 2:0.134076 3:0.671429 4:0.166667 
0 1 1:0.068832 2:0.135933 3:0.678571 4:0.166667 
0 1 1:0.037279 2:0.14545 3:0.671429 4:0.166667 
0 1 1:0.046008 2:0.011281 3:0.828571 4:0.166667 
1 0 1:0.083209 2:0.073352 3:0.621429 4:0.6 
1 0 1:0.079127 2:0.087976 3:0.635714 4:0.6 
1 0 1:0.114172 2:0.114903 3:0.671429 4:0.6 
0 1 1:0.024467 2:0.00455 3:0.828571 4:0.166667 
0 1 1:0.018716 2:0.001486 3:0.828571 4:0.166667 
1 0 1:0.109345 2:0.154689 3:0.564286 4:0.566667 
1 0 1:0.145006 2:0.110817 3:0.7 4:0.6 
0 1 1:0.039255 2:0.00961 3:0.828571 4:0.166667 
0 1 1:0.052606 2:0.125534 3:0.557143 4:0.133333 
1 0 1:0.098537 2:0.170334 3:0.528571 4:0.566667 
0 1 1:0.066496 2:0.146657 3:0.6 4:0.133333 
1 0 1:0.121335 2:0.074977 3:0.685714 4:0.6 
1 0 1:0.157535 2:0.131894 3:0.571429 4:0.566667 
1 0 1:0.149679 2:0.113417 3:0.671429 4:0.6 
1 0 1:0.15982 2:0.116527 3:0.721429 4:0.6 
1 0 1:0.125854 2:0.151393 3:0.571429 4:0.566667 
1 0 1:0.096046 2:0.024234 3:0.621429 4:0.6 
1 0 1:0.082978 2:0.078087 3:0.621429 4:0.6 
0 1 1:0.125546 2:0 3:0.664286 4:0.166667 
1 0 1:0.080231 2:0.054271 3:0.535714 4:0.566667 
1 0 1:0.050167 2:0.077948 3:0.664286 4:0.6 
1 0 1:0.108087 2:0.130269 3:0.692857 4:0.6 
1 0 1:0.078228 2:0.128087 3:0.535714 4:0.566667 
1 0 1:0.022696 2:0.149071 3:0.621429 4:0.6 
0 1 1:0.047805 2:0 3:0.828571 4:0.166667 
1 0 1:0.098408 2:0.100511 3:0.678571 4:0.6 
1 0 1:0.133222 2:0.088579 3:0.642857 4:0.6 
1 0 1:0.093171 2:0.16416 3:0.557143 4:0.566667 
1 0 1:0.158973 2:0.167502 3:0.578571 4:0.566667 
0 1 1:0.044775 2:0.038812 3:0.778571 4:0.166667 
1 0 1:0.129833 2:0.155246 3:0.657143 4:0.6 
1 0 1:0.142773 2:0.131012 3:0.721429 4:0.6 
1 0 1:0.086264 2:0 3:0.621429 4:0.6 
1 0 1:0.147728 2:0.164253 3:0.592857 4:0.566667 
1 0 1:0.08742 2:0.144661 3:0.685714 4:0.6 
0 1 1:0.025956 2:0.022145 3:0.8 4:0.166667 
1 0 1:0.100385 2:0.138022 3:0.542857 4:0.566667 
1 0 1:0.064596 2:0.063324 3:0.614286 4:0.6 
1 0 1:0.023671 2:0.068152 3:0.6 4:0.6 
1 0 1:0.02285 2:0.056453 3:0.614286 4:0.6 
1 0 1:0.060976 2:0.096193 3:0.614286 4:0.6 
1 0 1:0.166444 2:0.126741 3:0.664286 4:0.6 
0 1 1:0.023107 2:0.045311 3:0.607143 4:0.166667 
0 1 1:0.015892 2:0.059192 3:0.528571 4:0.133333 
0 1 1:0.009936 2:0.139786 3:0.592857 4:0.166667 
0 1 1:0.008267 2:0.075952 3:0.614286 4:0.166667 
0 1 1:0.019101 2:0.058403 3:0.607143 4:0.166667 
0 1 1:0.03353 2:0 3:0.542857 4:0.166667 
0 1 1:0.01656 2:0.125395 3:0.528571 4:0.133333 
0 1 1:0.036816 2:0.149443 3:0.564286 4:0.133333 
1 0 1:0.088447 2:0 3:0.621429 4:0.6 
0 1 1:0.009037 2:0.069452 3:0.578571 4:0.166667 
0 1 1:0.005854 2:0 3:0.578571 4:0.166667 
1 0 1:0.117946 2:0 3:0.535714 4:0.566667 
0 0.6682781199650222 1:0.020026 2:0.162396 3:0.592857 4:0.166667 
0 1 1:0.019641 2:0.125348 3:0.564286 4:0.133333 
0 1 1:0.020385 2:0.032358 3:0.578571 4:0.166667 
0 1 1:0.063928 2:0.126973 3:0.55 4:0.133333 
1 0 1:0.094814 2:0.145311 3:0.542857 4:0.566667 
1 0 1:0.175661 2:0.165367 3:0.592857 4:0.566667 
0 1 1:0.048087 2:0.127252 3:0.578571 4:0.133333 
1 0 1:0.048087 2:0 3:0.621429 4:0.6 
1 0 1:0.131476 2:0.155478 3:0.55 4:0.566667 
1 0 1:0.069525 2:0.104503 3:0.692857 4:0.6 
1 0 1:0.066727 2:0.141458 3:0.65 4:0.6 
0 1 1:0.050603 2:0.133798 3:0.664286 4:0.166667 
0 0.1413165376757738 1:0.037433 2:0.128505 3:0.635714 4:0.166667 
0 1 1:0.059769 2:0.011374 3:0.821429 4:0.166667 
0 1 1:0.01887 2:0.070474 3:0.635714 4:0.166667 
1 0 1:0.100231 2:0.148839 3:0.664286 4:0.6 
0 1 1:0.05104 2:0.385608 3:0.628571 4:0.166667 
1 0 1:0.160899 2:0.127205 3:0.571429 4:0.566667 
0 1 1:0.076123 2:0.146147 3:0.607143 4:0.133333 
0 1 1:0.058254 2:0.136862 3:0.557143 4:0.133333 
1 0 1:0.090116 2:0.016063 3:0.65 4:0.6 
0 1 1:0.055379 2:0.121077 3:0.757143 4:0.166667 
1 0 1:0.06208 2:0.108542 3:0.685714 4:0.6 
1 0 1:0.116945 2:0.114206 3:0.65 4:0.6 
1 0 1:0.083132 2:0.089647 3:0.664286 4:0.6 
1 0 1:0.106264 2:0.143872 3:0.678571 4:0.6 
1 0 1:0.11484 2:0.134355 3:0.685714 4:0.6 
0 1 1:0.066932 2:0.154875 3:0.657143 4:0.166667 
0 1 1:0.034095 2:0.106917 3:0.65 4:0.166667 
1 0 1:0.032863 2:0.06546 3:0.607143 4:0.6 
1 0 1:0.031348 2:0.02688 3:0.5 4:0.566667 
0 1 1:0.073838 2:0.165645 3:0.592857 4:0.133333 
1 0 1:0.099795 2:0.131616 3:0.664286 4:0.6 
0 1 1:0.052015 2:0.009146 3:0.821429 4:0.166667 
1 0 1:0.041438 2:0.130409 3:0.514286 4:0.566667 
0 1 1:0.028395 2:0.038579 3:0.785714 4:0.166667 
0 1 1:0.114275 2:0.145775 3:0.621429 4:0.133333 
1 0 1:0.119076 2:0.097122 3:0.707143 4:0.6 
1 0 1:0.110552 2:0.158449 3:0.557143 4:0.566667 
1 0 1:0.151682 2:0.155478 3:0.528571 4:0.566667 
0 1 1:0.098228 2:0.154735 3:0.514286 4:0.133333 
1 0 1:0.084211 2:0.155525 3:0.557143 4:0.566667 
0 1 1:0.094506 2:0.161096 3:0.507143 4:0.133333 
1 0 1:0.097381 2:0.158217 3:0.514286 4:0.566667 
1 0 1:0.107959 2:0 3:0.607143 4:0.6 
0 1 1:0.012195 2:0.029248 3:0.664286 4:0.166667 
1 0 1:0.109243 2:0.023816 3:0.671429 4:0.6 
0 1 1:0.019974 2:0.14364 3:0.671429 4:0.166667 
0 1 1:0.064467 2:0.135283 3:0.685714 4:0.166667 
1 0 1:0.120822 2:0.169963 3:0.564286 4:0.566667 
0 1 1:0.047009 2:0.125116 3:0.692857 4:0.166667 
1 0 1:0.100462 2:0 3:0.614286 4:0.6 
0 1 1:0.066444 2:0.014995 3:0.785714 4:0.166667 
1 0 1:0.16706 2:0.113324 3:0.728571 4:0.6 
1 0 1:0.120899 2:0.153853 3:0.678571 4:0.6 
1 0 1:0.102208 2:0.093918 3:0.692857 4:0.6 
0 1 1:0.037638 2:0.01792 3:0.835714 4:0.166667 
0 1 1:0 2:0 3:0.671429 4:0.166667 
1 0 1:0.100591 2:0.12363 3:0.692857 4:0.6 
1 0 1:0.097381 2:0.132591 3:0.7 4:0.6 
1 0 1:0.063569 2:0.15896 3:0.664286 4:0.6 
0 1 1:0.050475 2:0.014763 3:0.828571 4:0.166667 
1 0 1:0.147908 2:0.140158 3:0.714286 4:0.6 
1 0 1:0.0743 2:0.144893 3:0.664286 4:0.6 
1 0 1:0.04932 2:0.16286 3:0.664286 4:0.6 
0 1 1:0.06724 2:0.165042 3:0.65 4:0.166667 
0 1 1:0.01923 2:0.016388 3:0.821429 4:0.166667 
0 1 1:0.036508 2:0.028969 3:0.8 4:0.166667 
0 1 1:0.030218 2:0.011699 3:0.807143 4:0.166667 
1 0 1:0.096868 2:0.12507 3:0.678571 4:0.6 
0 1 1:0.081027 2:0.169731 3:0.607143 4:0.133333 
0 1 1:0.047522 2:0.168431 3:0.557143 4:0.133333 
0 1 1:0.064904 2:0.134262 3:0.664286 4:0.166667 
0 1 1:0.065058 2:0.167084 3:0.657143 4:0.166667 
1 0 1:0.145109 2:0.169406 3:0.592857 4:0.566667 
1 0 1:0.149422 2:0.169777 3:0.585714 4:0.566667 
1 0 1:0.179409 2:0.156175 3:0.592857 4:0.566667 
0 1 1:0.031502 2:0.156128 3:0.614286 4:0.166667 
0 1 1:0.067574 2:0.15376 3:0.514286 4:0.133333 
0 1 1:0.053864 2:0.149907 3:0.592857 4:0.133333 
0 1 1:0.023312 2:0.008774 3:0.821429 4:0.166667 
0 0.3703835612758413 1:0.029807 2:0.075859 3:0.771429 4:0.166667 
0 1 1:0.046598 2:0.118245 3:0.664286 4:0.166667 
0 1 1:0.017792 2:0.040111 3:0.664286 4:0.166667 
0 1 1:0.026598 2:0 3:0.657143 4:0.166667 
0 1 1:0.073607 2:0.140065 3:0.692857 4:0.166667 
1 0 1:0.131142 2:0.098747 3:0.535714 4:0.566667 
1 0 1:0.102927 2:0.134912 3:0.535714 4:0.566667 
1 0 1:0.07715 2:0.094197 3:0.678571 4:0.6 
1 0 1:0.082336 2:0.114624 3:0.685714 4:0.6 
0 1 1:0.033222 2:0.12818 3:0.692857 4:0.166667 
1 0 1:0.096175 2:0.133983 3:0.514286 4:0.566667 
0 1 1:0.078614 2:0.009099 3:0.635714 4:0.166667 
0 1 1:0.063748 2:0.158914 3:0.585714 4:0.133333 
1 0 1:0.033736 2:0.162767 3:0.542857 4:0.566667 
1 0 1:0.031656 2:0.012813 3:0.585714 4:0.6 
1 0 1:0.087908 2:0.101161 3:0.671429 4:0.6 
1 0 1:0.118151 2:0.004828 3:0.614286 4:0.6 
0 1 1:0.017047 2:0.080316 3:0.757143 4:0.166667 
0 1 1:0.035045 2:0.019916 3:0.771429 4:0.166667 
1 0 1:0.075918 2:0.135469 3:0.542857 4:0.566667 
1 0 1:0.102362 2:0.1065 3:0.664286 4:0.6 
1 0 1:0.165674 2:0.163278 3:0.6 4:0.566667 
0 0.8365359523548235 1:0.039384 2:0 3:0.85 4:0.166667 
1 0 1:0.186496 2:0.16987 3:0.592857 4:0.566667 
1 0 1:0.082182 2:0.157474 3:0.514286 4:0.566667 
1 0 1:0.127189 2:0.140994 3:0.671429 4:0.6 
1 0 1:0.048729 2:0.107474 3:0.678571 4:0.6 
0 1 1:0.099512 2:0.141643 3:0.692857 4:0.166667 
1 0 1:0.116662 2:0.064067 3:0.514286 4:0.566667 
0 1 1:0.038357 2:0 3:0.664286 4:0.166667 
0 1 1:0.084698 2:0.016063 3:0.671429 4:0.166667 
1 0 1:0.106727 2:0.164995 3:0.542857 4:0.566667 
1 0 1:0.042234 2:0.147818 3:0.671429 4:0.6 
1 0 1:0.077741 2:0.135887 3:0.507143 4:0.566667 
1 0 1:0.135533 2:0.08598 3:0.692857 4:0.6 
1 0 1:0.113248 2:0 3:0.678571 4:0.6 
0 1 1:0.026418 2:0.053621 3:0.778571 4:0.166667 
1 0 1:0.076996 2:0.157149 3:0.535714 4:0.566667 
0 1 1:0.050706 2:0.021959 3:0.785714 4:0.166667 
0 1 1:0.017458 2:0.126741 3:0.664286 4:0.166667 
0 1 1:0.031091 2:0.024605 3:0.607143 4:0.166667 
1 0 1:0.060334 2:0.15441 3:0.557143 4:0.566667 
1 0 1:0.068678 2:0.013231 3:0.507143 4:0.566667 
0 1 1:0.044647 2:0.012396 3:0.835714 4:0.166667 
1 0 1:0.057972 2:0.163603 3:0.55 4:0.566667 
1 0 1:0.104467 2:0.129201 3:0.564286 4:0.566667 
1 0 1:0.066444 2:0 3:0.642857 4:0.6 
0 1 1:0.027266 2:0.039183 3:0.607143 4:0.166667 
0 1 1:0.024955 2:0.015506 3:0.621429 4:0.166667 
0 1 1:0.033556 2:0.013695 3:0.642857 4:0.166667 
0 1 1:0.031348 2:0.161931 3:0.628571 4:0.166667 
0 1 1:0.03294 2:0 3:0.764286 4:0.166667 
0 1 1:0.057099 2:0.036676 3:0.807143 4:0.166667 
0 1 1:0.027009 2:0.091783 3:0.742857 4:0.166667 
0 1 1:0.030064 2:0.115831 3:0.642857 4:0.166667 
1 0 1:0.090783 2:0.128366 3:0.521429 4:0.566667 
1 0 1:0.066444 2:0.018152 3:0.521429 4:0.566667 
1 0 1:0.030347 2:0.013231 3:0.507143 4:0.566667 
1 0 1:0.115353 2:0.137837 3:0.65 4:0.6 
1 0 1:0.071502 2:0.118013 3:0.507143 4:0.566667 
0 1 1:0.136585 2:0.015785 3:0.821429 4:0.166667 
1 0 1:0.101412 2:0.138394 3:0.664286 4:0.6 
1 0 1:0.123338 2:0.120241 3:0.65 4:0.6 
1 0 1:0.06742 2:0.158171 3:0.642857 4:0.6 
0 1 1:0.033017 2:0.020938 3:0.835714 4:0.166667 
1 0 1:0.059435 2:0.142247 3:0.65 4:0.6 
1 0 1:0.027394 2:0.014578 3:0.585714 4:0.6 
1 0 1:0.122696 2:0.15896 3:0.535714 4:0.566667 
1 0 1:0.103697 2:0.058542 3:0.671429 4:0.6 
0 1 1:0.034583 2:0.132358 3:0.635714 4:0.166667 
0 1 1:0.045546 2:0.004225 3:0.821429 4:0.166667 
0 1 1:0.030732 2:0.076927 3:0.785714 4:0.166667 
0 1 1:0.049499 2:0.120427 3:0.707143 4:0.166667 
1 0 1:0.092041 2:0.093268 3:0.65 4:0.6 
0 1 1:0.021232 2:0.129434 3:0.671429 4:0.166667 
1 0 1:0.073145 2:0.151114 3:0.514286 4:0.566667 
1 0 1:0.101489 2:0.156592 3:0.664286 4:0.6 
1 0 1:0.120103 2:0.123305 3:0.707143 4:0.6 
1 0 1:0.069217 2:0.137326 3:0.657143 4:0.6 
1 0 1:0.02629 2:0.016249 3:0.642857 4:0.6 
0 1 1:0.031194 2:0.120706 3:0.678571 4:0.166667 
1 0 1:0.083363 2:0.149443 3:0.642857 4:0.6 
0 1 1:0.022798 2:0.152739 3:0.607143 4:0.166667 
1 0 1:0.112657 2:0.152275 3:0.528571 4:0.566667 
0 1 1:0.035841 2:0.00195 3:0.821429 4:0.166667 
0 1 1:0.032991 2:0.01727 3:0.557143 4:0.166667 
1 0 1:0.080462 2:0.157567 3:0.664286 4:0.6 
1 0 1:0.026187 2:0.009424 3:0.635714 4:0.6 
1 0 1:0.080257 2:0.014345 3:0.614286 4:0.6 
0 1 1:0.027831 2:0.112906 3:0.7 4:0.166667 
0 1 1:0.036226 2:0.006267 3:0.842857 4:0.166667 
1 0 1:0.061104 2:0.062767 3:0.671429 4:0.6 
0 1 1:0.035276 2:0.153668 3:0.628571 4:0.166667 
1 0 1:0.116739 2:0.128923 3:0.685714 4:0.6 
0 1 1:0.041566 2:0.016481 3:0.835714 4:0.166667 
1 0 1:0.058511 2:0.147632 3:0.65 4:0.6 
0 1 1:0.039332 2:0.025905 3:0.778571 4:0.166667 
1 0 1:0.078177 2:0.159006 3:0.507143 4:0.566667 
1 0 1:0.127625 2:0.129526 3:0.707143 4:0.6 
1 0 1:0.089037 2:0.169406 3:0.542857 4:0.566667 
0 1 1:0.032092 2:0.005014 3:0.828571 4:0.166667 
0 1 1:0.075045 2:0.156546 3:0.614286 4:0.133333 
1 0 1:0.05199 2:0 3:0.635714 4:0.6 
1 0 1:0.160539 2:0.168013 3:0.592857 4:0.566667 
0 1 1:0.054917 2:0.16676 3:0.635714 4:0.166667 
0 1 1:0.036611 2:0.007892 3:0.828571 4:0.166667 
0 0.929423995759408 1:0.040436 2:0.016295 3:0.821429 4:0.166667 
1 0 1:0.10285 2:0.167502 3:0.564286 4:0.566667 
1 0 1:0.115019 2:0.080176 3:0.678571 4:0.6 
0 1 1:0.041207 2:0.155664 3:0.585714 4:0.133333 
0 1 1:0.053813 2:0.167967 3:0.614286 4:0.133333 
0 1 1:0.036611 2:0.116063 3:0.671429 4:0.166667 
1 0 1:0.179307 2:0.13078 3:0.714286 4:0.6 
0 0.8402143949276476 1:0.03656 2:0.018152 3:0.814286 4:0.166667 
0 1 1:0.026624 2:0.013788 3:0.557143 4:0.166667 
1 0 1:0.040026 2:0.06337 3:0.635714 4:0.6 
0 1 1:0.07923 2:0.1448 3:0.678571 4:0.166667 
1 0 1:0.101643 2:0.161049 3:0.707143 4:0.6 
1 0 1:0.043774 2:0.100511 3:0.635714 4:0.6 
0 1 1:0.061617 2:0.162999 3:0.585714 4:0.133333 
0 1 1:0.044005 2:0.113649 3:0.7 4:0.166667 
0 1 1:0.100231 2:0.067131 3:0.821429 4:0.166667 
1 0 1:0.147214 2:0.164903 3:0.571429 4:0.566667 
0 1 1:0.032529 2:0.034076 3:0.8 4:0.166667 
1 0 1:0.081977 2:0.159703 3:0.535714 4:0.566667 
1 0 1:0.127189 2:0.153343 3:0.678571 4:0.6 
0 1 1:0.056329 2:0.008403 3:0.828571 4:0.166667 
0 1 1:0.042773 2:0.013603 3:0.821429 4:0.166667 
0 1 1:0.050526 2:0.134819 3:0.571429 4:0.133333 
1 0 1:0.092863 2:0.150232 3:0.664286 4:0.6 
1 0 1:0.078049 2:0.12948 3:0.635714 4:0.6 
1 0 1:0.039615 2:0.128877 3:0.535714 4:0.566667 
0 1 1:0.018306 2:0.133937 3:0.678571 4:0.166667 
0 1 1:0.014429 2:0.113695 3:0.642857 4:0.166667 
0 1 1:0.05009 2:0.015924 3:0.607143 4:0.166667 
0 1 1:0.065289 2:0.14935 3:0.6 4:0.133333 
0 1 1:0.011142 2:0.012256 3:0.628571 4:0.166667 
1 0 1:0.077561 2:0.155664 3:0.55 4:0.566667 
1 0 1:0.120693 2:0.106453 3:0.657143 4:0.6 
0 1 1:0.011913 2:0.018617 3:0.65 4:0.166667 
0 1 1:0.023902 2:0.046425 3:0.778571 4:0.166667 
0 1 1:0.054506 2:0.137558 3:0.585714 4:0.133333 
1 0 1:0.097227 2:0.145265 3:0.528571 4:0.566667 
1 0 1:0.144056 2:0.169313 3:0.564286 4:0.566667 
1 0 1:0.101207 2:0.161838 3:0.542857 4:0.566667 
1 0 1:0.075764 2:0.142061 3:0.678571 4:0.6 
1 0 1:0.128472 2:0.090947 3:0.671429 4:0.6 
0 1 1:0.069807 2:0.168199 3:0.528571 4:0.133333 
0 1 1:0.146598 2:0.155617 3:0.571429 4:0.133333 
1 0 1:0.166496 2:0.150139 3:0.557143 4:0.566667 
1 0 1:0.134634 2:0.094708 3:0.714286 4:0.6 
0 1 1:0.058177 2:0.031941 3:0.785714 4:0.166667 
0 1 1:0.065135 2:0.16337 3:0.664286 4:0.166667 
0 1 1:0.010526 2:0.13714 3:0.657143 4:0.166667 
1 0 1:0.075738 2:0 3:0.628571 4:0.6 
0 1 1:0.098434 2:0.163417 3:0.542857 4:0.133333 
0 1 1:0.03733 2:0.145682 3:0.678571 4:0.166667 
0 1 1:0.046932 2:0.157382 3:0.585714 4:0.133333 
0 1 1:0.062336 2:0.152553 3:0.664286 4:0.166667 
0 1 1:0.049294 2:0.036165 3:0.778571 4:0.166667 
1 0 1:0.173145 2:0.061746 3:0.721429 4:0.6 
1 0 1:0.054352 2:0.098979 3:0.664286 4:0.6 
1 0 1:0.045674 2:0.159239 3:0.528571 4:0.566667 
1 0 1:0.157587 2:0.165181 3:0.678571 4:0.6 
1 0 1:0.195866 2:0.166295 3:0.557143 4:0.566667 
0 1 1:0.132041 2:0.081894 3:0.721429 4:0.166667 
1 0 1:0.203132 2:0.169824 3:0.45 4:0.533333 
1 0 1:0.017792 2:0.057614 3:0.657143 4:0.6 
0 1 1:0.063389 2:0.028737 3:0.792857 4:0.166667 
0 1 1:0.056303 2:0.15831 3:0.585714 4:0.133333 
1 0 1:0.092837 2:0.026555 3:0.664286 4:0.6 
1 0 1:0.040436 2:0.082358 3:0.621429 4:0.6 
0 1 1:0.06 2:0.113603 3:0.55 4:0.133333 
1 0 1:0.075944 2:0 3:0.657143 4:0.6 
0 1 1:0.096329 2:0.15195 3:0.55 4:0.133333 
0 1 1:0.043954 2:0.144522 3:0.571429 4:0.133333 
1 0 1:0.078126 2:0.147354 3:0.678571 4:0.6 
0 1 1:0.041104 2:0.00831 3:0.842857 4:0.166667 
1 0 1:0.043286 2:0.163138 3:0.685714 4:0.6 
1 0 1:0.105237 2:0.1526 3:0.65 4:0.6 
0 1 1:0.061566 2:0.168942 3:0.642857 4:0.166667 
0 1 1:0.041617 2:0.139833 3:0.685714 4:0.166667 
1 0 1:0.07751 2:0.152832 3:0.657143 4:0.6 
0 1 1:0.050372 2:0.15455 3:0.657143 4:0.166667 
0 1 1:0.017843 2:0.044475 3:0.771429 4:0.166667 
0 1 1:0.023646 2:0.130316 3:0.642857 4:0.166667 
0 1 1:0.026829 2:0.127298 3:0.635714 4:0.166667 
0 1 1:0.05543 2:0.150696 3:0.571429 4:0.133333 
1 0 1:0.096585 2:0.13844 3:0.514286 4:0.566667 
0 1 1:0.067754 2:0 3:0.657143 4:0.166667 
1 0 1:0.114608 2:0.151068 3:0.657143 4:0.6 
0 1 1:0.074814 2:0.130641 3:0.6 4:0.133333 
0 1 1:0.044647 2:0.02117 3:0.8 4:0.166667 
0 1 1:0.032144 2:0.011003 3:0.8 4:0.166667 
1 0 1:0.130706 2:0.169034 3:0.55 4:0.566667 
0 1 1:0.01982 2:0.04039 3:0.778571 4:0.166667 
0 1 1:0.0981 2:0 3:0.435714 4:0.133333 
0 1 1:0.063851 2:0.159749 3:0.614286 4:0.133333 
1 0 1:0.133736 2:0.168709 3:0.55 4:0.566667 
1 0 1:0.090321 2:0.165367 3:0.65 4:0.6 
1 0 1:0.143671 2:0.033844 3:0.642857 4:0.6 
1 0 1:0.085879 2:0.07363 3:0.65 4:0.6 
1 0 1:0.073941 2:0.140994 3:0.635714 4:0.6 
1 0 1:0.07638 2:0.169638 3:0.642857 4:0.6 
1 0 1:0.102798 2:0.037744 3:0.642857 4:0.6 
1 0 1:0.098074 2:0.052461 3:0.635714 4:0.6 
0 1 1:0.047317 2:0.02182 3:0.807143 4:0.166667 
1 0 1:0.108935 2:0.070474 3:0.635714 4:0.6 
0 0.7277419727929494 1:0.074814 2:0 3:0.828571 4:0.166667 
1 0 1:0.131014 2:0.161188 3:0.585714 4:0.566667 
0 1 1:0.084236 2:0.025905 3:0.621429 4:0.166667 
1 0 1:0.023132 2:0.075673 3:0.614286 4:0.6 
0 1 1:0.051297 2:0.118106 3:0.685714 4:0.166667 
1 0 1:0.080128 2:0.160492 3:0.535714 4:0.566667 
1 0 1:0.063389 2:0.098189 3:0.664286 4:0.6 
1 0 1:0.084134 2:0.110956 3:0.65 4:0.6 
0 1 1:0.04991 2:0.127066 3:0.7 4:0.166667 
1 0 1:0.128216 2:0.032591 3:0.635714 4:0.6 
0 1 1:0.041386 2:0.129294 3:0.564286 4:0.133333 
1 0 1:0.143235 2:0.024095 3:0.657143 4:0.6 
0 1 1:0.040026 2:0.120427 3:0.685714 4:0.166667 
0 1 1:0.046624 2:0.134355 3:0.692857 4:0.166667 
1 0 1:0.081232 2:0.091643 3:0.671429 4:0.6 
0 1 1:0.043107 2:0.153714 3:0.6 4:0.133333 
0 1 1:0.050295 2:0.012163 3:0.792857 4:0.166667 
1 0 1:0.078254 2:0.12442 3:0.528571 4:0.566667 
1 0 1:0.196585 2:0.161467 3:0.564286 4:0.566667 
0 1 1:0.034557 2:0.096518 3:0.721429 4:0.166667 
1 0 1:0.067343 2:0.131708 3:0.678571 4:0.6 
1 0 1:0.153402 2:0.157567 3:0.571429 4:0.566667 
0 1 1:0.046598 2:0.011328 3:0.842857 4:0.166667 
0 1 1:0.028164 2:0 3:0.578571 4:0.166667 
1 0 1:0.165212 2:0.15325 3:0.564286 4:0.566667 
0 1 1:0.055276 2:0.146936 3:0.657143 4:0.166667 
1 0 1:0.115276 2:0.140158 3:0.671429 4:0.6 
1 0 1:0.158074 2:0.119638 3:0.671429 4:0.6 
0 1 1:0.088421 2:0.130362 3:0.7 4:0.166667 
0 1 1:0.045417 2:0.020613 3:0.807143 4:0.166667 
0 1 1:0.039974 2:0.022238 3:0.814286 4:0.166667 
1 0 1:0.061694 2:0.122841 3:0.657143 4:0.6 
0 1 1:0.058537 2:0 3:0.814286 4:0.166667 
1 0 1:0.066855 2:0.14364 3:0.671429 4:0.6 
1 0 1:0.088113 2:0.117084 3:0.678571 4:0.6 
1 0 1:0.088986 2:0.13649 3:0.685714 4:0.6 
1 0 1:0.0381 2:0.16676 3:0.521429 4:0.566667 
1 0 1:0.041746 2:0.1487 3:0.535714 4:0.566667 
1 0 1:0.057202 2:0.130176 3:0.664286 4:0.6 
1 0 1:0.099692 2:0.027809 3:0.664286 4:0.6 
1 0 1:0.052811 2:0 3:0.628571 4:0.6 
0 1 1:0.024801 2:0.081708 3:0.685714 4:0.166667 
0 1 1:0.003466 2:0.001114 3:0.814286 4:0.166667 
1 0 1:0.06878 2:0.1474 3:0.671429 4:0.6 
1 0 1:0.096816 2:0.139833 3:0.642857 4:0.6 
0 1 1:0.056123 2:0.176045 3:0.692857 4:0.166667 
0 1 1:0.032555 2:0.112396 3:0.678571 4:0.166667 
0 1 1:0.064082 2:0.02572 3:0.621429 4:0.166667 
1 0 1:0.112657 2:0.035051 3:0.692857 4:0.6 
1 0 1:0.090911 2:0.121495 3:0.685714 4:0.6 
0 1 1:0.021592 2:0.017688 3:0.821429 4:0.166667 
0 1 1:0.041592 2:0.001486 3:0.821429 4:0.166667 
1 0 1:0.167086 2:0.152646 3:0.557143 4:0.566667 
0 1 1:0.040822 2:0.14689 3:0.642857 4:0.166667 
1 0 1:0.086162 2:0.113788 3:0.678571 4:0.6 
0 1 1:0.064056 2:0.135887 3:0.692857 4:0.166667 
1 0 1:0.150218 2:0.165227 3:0.578571 4:0.566667 
0 1 1:0.02991 2:0.138254 3:0.642857 4:0.166667 
0 1 1:0.058588 2:0.118942 3:0.735714 4:0.166667 
0 1 1:0.02285 2:0.016156 3:0.828571 4:0.166667 
1 0 1:0.064082 2:0.052878 3:0.642857 4:0.6 
1 0 1:0.10475 2:0.146332 3:0.571429 4:0.566667 
1 0 1:0.077356 2:0.158403 3:0.642857 4:0.6 
0 1 1:0.041335 2:0.03454 3:0.785714 4:0.166667 
1 0 1:0.187112 2:0.194847 3:0.6 4:0.566667 
1 0 1:0.094198 2:0.041411 3:0.685714 4:0.6 
0 1 1:0.056637 2:0.02442 3:0.785714 4:0.166667 
0 1 1:0.023107 2:0.082312 3:0.685714 4:0.166667 
0 1 1:0.022182 2:0.086258 3:0.735714 4:0.166667 
1 0 1:0.110449 2:0.142108 3:0.571429 4:0.566667 
1 0 1:0.07335 2:0 3:0.657143 4:0.6 
0 1 1:0.041386 2:0.10831 3:0.707143 4:0.166667 
1 0 1:0.05389 2:0.087604 3:0.628571 4:0.6 
0 1 1:0.07294 2:0.139044 3:0.692857 4:0.166667 
0 1 1:0.058331 2:0.149489 3:0.571429 4:0.133333 
1 0 1:0.040488 2:0.167734 3:0.542857 4:0.566667 
0 1 1:0.074788 2:0.151068 3:0.671429 4:0.166667 
1 0 1:0.088883 2:0.111188 3:0.542857 4:0.566667 
1 0 1:0.111014 2:0.143593 3:0.521429 4:0.566667 
1 0 1:0.047831 2:0.120984 3:0.657143 4:0.6 
0 1 1:0.030013 2:0.021541 3:0.785714 4:0.166667 
0 1 1:0.025725 2:0.022888 3:0.771429 4:0.166667 
0 1 1:0.025417 2:0.038765 3:0.771429 4:0.166667 
0 1 1:0.028344 2:0.050464 3:0.778571 4:0.166667 
0 1 1:0.024519 2:0.003018 3:0.828571 4:0.166667 
1 0 1:0.031861 2:0.13779 3:0.664286 4:0.6 
1 0 1:0.149012 2:0.101903 3:0.7 4:0.6 
0 1 1:0.029448 2:0.017131 3:0.771429 4:0.166667 
1 0 1:0.074583 2:0.139508 3:0.557143 4:0.566667 
1 0 1:0.050167 2:0.128273 3:0.671429 4:0.6 
1 0 1:0.068139 2:0.1565 3:0.528571 4:0.566667 
0 1 1:0.064082 2:0.133937 3:0.678571 4:0.166667 
0 1 1:0.05258 2:0.146704 3:0.578571 4:0.133333 
1 0 1:0.153736 2:0.163556 3:0.564286 4:0.566667 
0 1 1:0.050475 2:0.044429 3:0.785714 4:0.166667 
1 0 1:0.144082 2:0.156825 3:0.664286 4:0.6 
1 0 1:0.116277 2:0.127298 3:0.685714 4:0.6 
0 1 1:0.033042 2:0.003714 3:0.842857 4:0.166667 
0 1 1:0.030552 2:0.005339 3:0.842857 4:0.166667 
0 1 1:0.045237 2:0.013278 3:0.785714 4:0.166667 
0 0.9894813026762341 1:0.029987 2:0.086676 3:0.628571 4:0.166667 
1 0 1:0.065802 2:0.106685 3:0.671429 4:0.6 
1 0 1:0.093453 2:0.006964 3:0.65 4:0.6 
0 1 1:0.034814 2:0.10571 3:0.707143 4:0.166667 
0 1 1:0.030116 2:0.06792 3:0.635714 4:0.166667 
1 0 1:0.150347 2:0.111978 3:0.685714 4:0.6 
1 0 1:0.099153 2:0.152461 3:0.571429 4:0.566667 
0 1 1:0.043902 2:0.114067 3:0.671429 4:0.166667 
0 1 1:0.039538 2:0.123491 3:0.65 4:0.166667 
1 0 1:0.097612 2:0.085051 3:0.692857 4:0.6 
1 0 1:0.066367 2:0.129898 3:0.664286 4:0.6 
0 1 1:0.038768 2:0.010539 3:0.778571 4:0.166667 
1 0 1:0.126829 2:0.145032 3:0.564286 4:0.566667 
1 0 1:0.059178 2:0.149304 3:0.535714 4:0.566667 
1 0 1:0.073556 2:0.055942 3:0.65 4:0.6 
1 0 1:0.085289 2:0 3:0.657143 4:0.6 
0 1 1:0.035661 2:0.007521 3:0.764286 4:0.166667 
0 1 1:0.044673 2:0.006964 3:0.821429 4:0.166667 
1 0 1:0.084981 2:0.089136 3:0.621429 4:0.6 
1 0 1:0.10457 2:0.103807 3:0.7 4:0.6 
0 1 1:0.071374 2:0.032033 3:0.8 4:0.166667 
0 1 1:0.04706 2:0.022098 3:0.807143 4:0.166667 
0 1 1:0.037997 2:0.02312 3:0.792857 4:0.166667 
0 1 1:0.035687 2:0.02182 3:0.8 4:0.166667 
1 0 1:0.085494 2:0.141133 3:0.507143 4:0.566667 
0 1 1:0.096534 2:0.154132 3:0.521429 4:0.133333 
1 0 1:0.063774 2:0.057521 3:0.75 4:0.633333 
0 1 1:0.063723 2:0.015645 3:0.6 4:0.166667 
0 1 1:0.042105 2:0.149489 3:0.65 4:0.166667 
1 0 1:0.126727 2:0.149025 3:0.657143 4:0.6 
1 0 1:0.032863 2:0.1026 3:0.614286 4:0.6 
1 0 1:0.109628 2:0.120241 3:0.678571 4:0.6 
0 1 1:0.05982 2:0.11467 3:0.735714 4:0.166667 
1 0 1:0.132888 2:0.097354 3:0.671429 4:0.6 
0 1 1:0.085751 2:0.165274 3:0.7 4:0.166667 
0 1 1:0.049037 2:0.132312 3:0.678571 4:0.166667 
0 1 1:0.153273 2:0.141133 3:0.6 4:0.133333 
1 0 1:0.083209 2:0.083519 3:0.664286 4:0.6 
1 0 1:0.115276 2:0.161096 3:0.564286 4:0.566667 
0 1 1:0.035687 2:0.01857 3:0.8 4:0.166667 
1 0 1:0.103286 2:0.132498 3:0.642857 4:0.6 
0 1 1:0.050578 2:0.140204 3:0.678571 4:0.166667 
1 0 1:0.052888 2:0.144847 3:0.664286 4:0.6 
1 0 1:0.075148 2:0.071773 3:0.528571 4:0.566667 
1 0 1:0.117587 2:0.155989 3:0.571429 4:0.566667 
1 0 1:0.140436 2:0.158774 3:0.578571 4:0.566667 
1 0 1:0.127343 2:0.058496 3:0.707143 4:0.6 
0 1 1:0.038228 2:0.106964 3:0.707143 4:0.166667 
1 0 1:0.099101 2:0.0961 3:0.664286 4:0.6 
1 0 1:0.061361 2:0.114113 3:0.621429 4:0.6 
0 1 1:0.031836 2:0.012071 3:0.764286 4:0.166667 
0 1 1:0.030039 2:0.024605 3:0.771429 4:0.166667 
1 0 1:0.17294 2:0.137094 3:0.685714 4:0.6 
1 0 1:0.090295 2:0.161049 3:0.557143 4:0.566667 
1 0 1:0.104493 2:0.140158 3:0.678571 4:0.6 
1 0 1:0.043415 2:0.017874 3:0.75 4:0.633333 
1 0 1:0.0619 2:0 3:0.728571 4:0.633333 
0 1 1:0.03181 2:0.002786 3:0.835714 4:0.166667 
1 0 1:0.056303 2:0.141876 3:0.5 4:0.566667 
0 0.5122394053062829 1:0.059076 2:0.103993 3:0.75 4:0.166667 
1 0 1:0.044673 2:0.034819 3:0.628571 4:0.6 
1 0 1:0.103209 2:0.13649 3:0.65 4:0.6 
1 0 1:0.072914 2:0.161096 3:0.664286 4:0.6 
1 0 1:0.099769 2:0.133055 3:0.521429 4:0.566667 
1 0 1:0.132478 2:0.154596 3:0.678571 4:0.6 
0 0.07057600424059196 1:0.041335 2:0.011606 3:0.821429 4:0.166667 
0 1 1:0.033633 2:0.036676 3:0.778571 4:0.166667 
0 1 1:0.054429 2:0.013928 3:0.828571 4:0.166667 
1 0 1:0.150706 2:0.164345 3:0.557143 4:0.566667 
0 1 1:0.055712 2:0.113278 3:0.714286 4:0.166667 
0 1 1:0.021823 2:0.093315 3:0.707143 4:0.166667 
0 1 1:0.036714 2:0.006964 3:0.842857 4:0.166667 
0 1 1:0.060077 2:0.1026 3:0.664286 4:0.166667 
0 1 1:0.045956 2:0.140483 3:0.585714 4:0.133333 
1 0 1:0.095764 2:0.140204 3:0.671429 4:0.6 
1 0 1:0.092169 2:0.116992 3:0.65 4:0.6 
1 0 1:0.081951 2:0.032591 3:0.478571 4:0.566667 
0 1 1:0.048344 2:0.160121 3:0.571429 4:0.133333 
1 0 1:0.076585 2:0.101764 3:0.671429 4:0.6 
0 1 1:0.033376 2:0.024605 3:0.65 4:0.166667 
1 0 1:0.065982 2:0.128134 3:0.642857 4:0.6 
0 1 1:0.090372 2:0.159239 3:0.507143 4:0.133333 
1 0 1:0.096534 2:0.155989 3:0.521429 4:0.566667 
0 1 1:0.03466 2:0.134633 3:0.628571 4:0.166667 
1 0 1:0.089012 2:0.146425 3:0.65 4:0.6 
1 0 1:0.081361 2:0.160399 3:0.557143 4:0.566667 
1 0 1:0.111425 2:0.156917 3:0.571429 4:0.566667 
0 1 1:0.05905 2:0.159703 3:0.585714 4:0.133333 
0 0.6271148729942547 1:0.027985 2:0.017642 3:0.8 4:0.166667 
0 1 1:0.050424 2:0.022795 3:0.635714 4:0.166667 
1 0 1:0.077535 2:0.108171 3:0.671429 4:0.6 
1 0 1:0.179718 2:0.1026 3:0.692857 4:0.6 
1 0 1:0.12837 2:0.150418 3:0.542857 4:0.566667 
1 0 1:0.097304 2:0.11467 3:0.685714 4:0.6 
1 0 1:0.079076 2:0.140204 3:0.55 4:0.566667 
0 1 1:0.033273 2:0.148097 3:0.621429 4:0.166667 
1 0 1:0.072015 2:0.088301 3:0.692857 4:0.6 
1 0 1:0.137612 2:0.092386 3:0.642857 4:0.6 
1 0 1:0.040077 2:0.090204 3:0.678571 4:0.6 
1 0 1:0.11163 2:0.130734 3:0.7 4:0.6 
0 0.624403131586814 1:0.067266 2:0.138812 3:0.671429 4:0.166667 
0 1 1:0.050064 2:0.121634 3:0.671429 4:0.166667 
1 0 1:0.118614 2:0.13324 3:0.678571 4:0.6 
0 1 1:0.069063 2:0.147632 3:0.685714 4:0.166667 
0 1 1:0.064878 2:0.003528 3:0.828571 4:0.166667 
1 0 1:0.091913 2:0.103993 3:0.664286 4:0.6 
1 0 1:0.052632 2:0.080316 3:0.657143 4:0.6 
1 0 1:0.079332 2:0.128134 3:0.65 4:0.6 
1 0 1:0.06837 2:0.150836 3:0.521429 4:0.566667 
1 0 1:0.070603 2:0.134633 3:0.492857 4:0.566667 
0 0.5860069127539678 1:0.066573 2:0.118756 3:0.707143 4:0.166667 
1 0 1:0.08113 2:0.083101 3:0.657143 4:0.6 
1 0 1:0.068549 2:0.113742 3:0.671429 4:0.6 
1 0 1:0.174326 2:0.153203 3:0.592857 4:0.566667 
1 0 1:0.131451 2:0.100743 3:0.707143 4:0.6 
1 0 1:0.045956 2:0.076602 3:0.635714 4:0.6 
1 0 1:0.062978 2:0.067177 3:0.75 4:0.633333 
0 1 1:0.023902 2:0.004875 3:0.814286 4:0.166667 
0 1 1:0.037227 2:0.100279 3:0.664286 4:0.166667 
0 1 1:0.086444 2:0.02493 3:0.678571 4:0.166667 
0 1 1:0.062388 2:0.133705 3:0.692857 4:0.166667 
1 0 1:0.054172 2:0.148097 3:0.635714 4:0.6 
0 1 1:0.070603 2:0.14299 3:0.671429 4:0.166667 
0 1 1:0.018742 2:0.023677 3:0.778571 4:0.166667 
1 0 1:0.07543 2:0.165227 3:0.564286 4:0.566667 
0 0.08606649298707772 1:0.000257 2:0.000464 3:0.778571 4:0.166667 
0 1 1:0.046727 2:0.026462 3:0.628571 4:0.166667 
0 1 1:0.028755 2:0.002321 3:0.842857 4:0.166667 
0 1 1:0.10475 2:0.179666 3:0.685714 4:0.166667 
0 1 1:0.000257 2:0.000929 3:0.757143 4:0.166667 
1 0 1:0.047754 2:0.019499 3:0.5 4:0.566667 
0 1 1:0.063928 2:0.144847 3:0.692857 4:0.166667 
0 1 1:0.042619 2:0.129526 3:0.557143 4:0.133333 
1 0 1:0.060591 2:0.140204 3:0.628571 4:0.6 
1 0 1:0.131836 2:0.152878 3:0.671429 4:0.6 
0 1 1:0.036457 2:0.012071 3:0.814286 4:0.166667 
0 1 1:0.045443 2:0.133705 3:0.678571 4:0.166667 
1 0 1:0.155841 2:0.207985 3:0.542857 4:0.566667 
1 0 1:0.065725 2:0.154596 3:0.685714 4:0.6 
1 0 1:0.028755 2:0.160167 3:0.628571 4:0.6 
0 1 1:0.037997 2:0.144847 3:0.657143 4:0.166667 
1 0 1:0.099615 2:0.133705 3:0.65 4:0.6 
1 0 1:0.112349 2:0.178459 3:0.535714 4:0.566667 
1 0 1:0.051348 2:0.118849 3:0.657143 4:0.6 
1 0 1:0.026444 2:0.149954 3:0.678571 4:0.6 
0 1 1:0.141463 2:0.069174 3:0.514286 4:0.133333 
1 0 1:0.146855 2:0.157846 3:0.535714 4:0.566667 
0 1 1:0.014377 2:0.095636 3:0.678571 4:0.166667 
1 0 1:0.108858 2:0.148097 3:0.65 4:0.6 
0 1 1:0.070347 2:0.135097 3:0.542857 4:0.133333 
1 0 1:0.025931 2:0.13649 3:0.685714 4:0.6 
0 1 1:0.03389 2:0.130919 3:0.578571 4:0.133333 
1 0 1:0.072914 2:0.108171 3:0.657143 4:0.6 
0 1 1:0.047497 2:0.006035 3:0.828571 4:0.166667 
1 0 1:0.135558 2:0.159239 3:0.542857 4:0.566667 
1 0 1:0.135815 2:0.154132 3:0.542857 4:0.566667 
0 1 1:0.034121 2:0.017781 3:0.835714 4:0.166667 
1 0 1:0.032606 2:0.198236 3:0.664286 4:0.6 
0 1 1:0.077792 2:0.119313 3:0.728571 4:0.166667 
1 0 1:0.059564 2:0.136026 3:0.628571 4:0.6 
1 0 1:0.04724 2:0.144847 3:0.628571 4:0.6 
0 1 1:0.005905 2:0.132776 3:0.671429 4:0.166667 
0 1 1:0.004878 2:0.132776 3:0.671429 4:0.166667 
0 1 1:0.005392 2:0.151346 3:0.671429 4:0.166667 
0 0.5360315465261349 1:0 2:0.143918 3:0.564286 4:0.166667 
0 1 1:0.017202 2:0.152275 3:0.571429 4:0.133333 
1 0 1:0.08344 2:0.157846 3:0.528571 4:0.566667 
0 1 1:0.005392 2:0.153203 3:0.628571 4:0.166667 
0 1 1:0.045366 2:0.119591 3:0.664286 4:0.166667 
1 0 1:0.139923 2:0.130455 3:0.664286 4:0.6 
0 1 1:0.028935 2:0.005942 3:0.821429 4:0.166667 
0 1 1:0.043132 2:0.007892 3:0.842857 4:0.166667 
1 0 1:0.064467 2:0.141411 3:0.628571 4:0.6 
0 1 1:0.052375 2:0.137883 3:0.664286 4:0.166667 
1 0 1:0.037176 2:0.13078 3:0.635714 4:0.6 
0 1 1:0.048986 2:0.137372 3:0.535714 4:0.133333 
1 0 1:0.030552 2:0.168988 3:0.535714 4:0.566667 
1 0 1:0.106675 2:0.143779 3:0.571429 4:0.566667 
1 0 1:0.104442 2:0.137604 3:0.521429 4:0.566667 
1 0 1:0.055199 2:0.095636 3:0.635714 4:0.6 
0 1 1:0.02516 2:0.009285 3:0.807143 4:0.166667 
0 1 1:0.045956 2:0.11792 3:0.671429 4:0.166667 
1 0 1:0.092169 2:0.056175 3:0.757143 4:0.633333 
0 1 1:0.055969 2:0.070102 3:0.657143 4:0.166667 
0 1 1:0.041078 2:0.004643 3:0.85 4:0.166667 
1 0 1:0.118614 2:0.171309 3:0.55 4:0.566667 
1 0 1:0.055199 2:0.054318 3:0.607143 4:0.6 
1 0 1:0.068293 2:0.118849 3:0.55 4:0.566667 
1 0 1:0.09294 2:0.14299 3:0.564286 4:0.566667 
0 1 1:0.070757 2:0.13974 3:0.721429 4:0.166667 
0 1 1:0.028498 2:0.009285 3:0.835714 4:0.166667 
1 0 1:0.110398 2:0.142061 3:0.65 4:0.6 
1 0 1:0.107831 2:0.141133 3:0.692857 4:0.6 
1 0 1:0.09525 2:0.159703 3:0.535714 4:0.566667 
1 0 1:0.086521 2:0.165274 3:0.542857 4:0.566667 
0 1 1:0.074891 2:0.137697 3:0.714286 4:0.166667 
0 1 1:0.06516 2:0.151161 3:0.585714 4:0.133333 
1 0 1:0.02362 2:0.159239 3:0.635714 4:0.6 
1 0 1:0.077535 2:0.15506 3:0.55 4:0.566667 
0 1 1:0.035173 2:0.131383 3:0.557143 4:0.133333 
1 0 1:0.122465 2:0.193129 3:0.671429 4:0.6 
1 0 1:0.05181 2:0.088719 3:0.685714 4:0.6 
0 1 1:0.004878 2:0.004178 3:0.835714 4:0.166667 
1 0 1:0.063928 2:0.106778 3:0.542857 4:0.566667 
1 0 1:0.077792 2:0.141133 3:0.55 4:0.566667 
1 0 1:0.119127 2:0.115135 3:0.65 4:0.6 
0 1 1:0.039795 2:0.143918 3:0.542857 4:0.133333 
0 1 1:0.039795 2:0.036212 3:0.792857 4:0.166667 
1 0 1:0.05905 2:0.001393 3:0.635714 4:0.6 
0 1 1:0.031322 2:0.009285 3:0.778571 4:0.166667 
1 0 1:0.032349 2:0.154132 3:0.671429 4:0.6 
1 0 1:0.089345 2:0.145311 3:0.642857 4:0.6 
0 1 1:0.096277 2:0.144568 3:0.542857 4:0.133333 
0 1 1:0.046213 2:0.012071 3:0.792857 4:0.166667 
0 1 1:0.077022 2:0.123027 3:0.757143 4:0.166667 
0 1 1:0.049294 2:0.016713 3:0.821429 4:0.166667 
0 1 1:0.074198 2:0.149954 3:0.678571 4:0.166667 
0 1 1:0.052888 2:0.152275 3:0.678571 4:0.166667 
0 1 1:0.027214 2:0.146704 3:0.678571 4:0.166667 
0 1 1:0.080796 2:0.162256 3:0.557143 4:0.133333 
1 0 1:0.074968 2:0.135562 3:0.664286 4:0.6 
0 1 1:0.079589 2:0.159239 3:0.528571 4:0.133333 
0 1 1:0.050064 2:0.051532 3:0.792857 4:0.166667 
0 1 1:0.030552 2:0.036212 3:0.621429 4:0.166667 
1 0 1:0.073941 2:0.013928 3:0.657143 4:0.6 
1 0 1:0.120924 2:0.161096 3:0.542857 4:0.566667 
0 1 1:0.050321 2:0.011142 3:0.628571 4:0.166667 
1 0 1:0.083158 2:0.143083 3:0.657143 4:0.6 
1 0 1:0.133248 2:0.142061 3:0.557143 4:0.566667 
1 0 1:0.109884 2:0.112349 3:0.514286 4:0.566667 
1 0 1:0.074865 2:0.124652 3:0.671429 4:0.6 
0 1 1:0.102696 2:0.140669 3:0.692857 4:0.166667 
1 0 1:0.060077 2:0.027391 3:0.764286 4:0.633333 
1 0 1:0.124005 2:0.134633 3:0.65 4:0.6 
1 0 1:0.085931 2:0.09415 3:0.657143 4:0.6 
0 1 1:0.042028 2:0.141458 3:0.571429 4:0.133333 
1 0 1:0.071168 2:0.148654 3:0.65 4:0.6 
0 1 1:0.029628 2:0.020938 3:0.778571 4:0.166667 
1 0 1:0.131964 2:0.081708 3:0.671429 4:0.6 
0 1 1:0.052888 2:0.138347 3:0.657143 4:0.166667 
1 0 1:0.197176 2:0.031105 3:0.664286 4:0.6 
1 0 1:0.080668 2:0.124838 3:0.678571 4:0.6 
1 0 1:0.097997 2:0 3:0.642857 4:0.6 
0 1 1:0.037227 2:0.00325 3:0.842857 4:0.166667 
0 1 1:0.062644 2:0.162024 3:0.65 4:0.166667 
0 1 1:0.059564 2:0.149489 3:0.578571 4:0.133333 
1 0 1:0.08113 2:0.100279 3:0.692857 4:0.6 
0 1 1:0.021566 2:0.111885 3:0.692857 4:0.166667 
0 1 1:0.017715 2:0.108635 3:0.707143 4:0.166667 
0 1 1:0.003851 2:0 3:0.842857 4:0.166667 
1 0 1:0.152067 2:0.128969 3:0.685714 4:0.6 
0 1 1:0.081386 2:0.156453 3:0.478571 4:0.133333 
1 0 1:0.094377 2:0.096565 3:0.671429 4:0.6 
1 0 1:0.067522 2:0.144847 3:0.542857 4:0.566667 
0 1 1:0.03697 2:0.009285 3:0.835714 4:0.166667 
1 0 1:0.074968 2:0.128598 3:0.635714 4:0.6 
1 0 1:0.076945 2:0.061142 3:0.678571 4:0.6 
1 0 1:0.075225 2:0.08403 3:0.692857 4:0.6 
1 0 1:0.074454 2:0.126277 3:0.628571 4:0.6 
1 0 1:0.070603 2:0.129526 3:0.642857 4:0.6 
0 1 1:0.040822 2:0.155989 3:0.657143 4:0.166667 
1 0 1:0.06932 2:0.142061 3:0.664286 4:0.6 
1 0 1:0.0457 2:0.066388 3:0.642857 4:0.6 
0 1 1:0.085494 2:0.133705 3:0.542857 4:0.133333 
1 0 1:0.021309 2:0.064531 3:0.6 4:0.6 
1 0 1:0.096791 2:0.022284 3:0.628571 4:0.6 
1 0 1:0.168164 2:0.101207 3:0.721429 4:0.6 
1 0 1:0.099615 2:0.164345 3:0.664286 4:0.6 
0 1 1:0.057253 2:0.133705 3:0.678571 4:0.166667 
0 1 1:0.111425 2:0.162953 3:0.564286 4:0.133333 
0 1 1:0.046983 2:0.034355 3:0.778571 4:0.166667 
1 0 1:0.167394 2:0.163417 3:0.542857 4:0.566667 
1 0 1:0.123492 2:0.15506 3:0.542857 4:0.566667 
0 1 1:0.072914 2:0.150882 3:0.614286 4:0.133333 
1 0 1:0.068806 2:0.069638 3:0.671429 4:0.6 
1 0 1:0.133504 2:0.143454 3:0.657143 4:0.6 
1 0 1:0.074968 2:0.13324 3:0.671429 4:0.6 
1 0 1:0.116046 2:0.104921 3:0.678571 4:0.6 
0 1 1:0.046727 2:0.013928 3:0.8 4:0.166667 
0 0.362042656607232 1:0.053659 2:0.111421 3:0.707143 4:0.166667 
1 0 1:0.102182 2:0.144847 3:0.671429 4:0.6 
1 0 1:0.084211 2:0.089136 3:0.685714 4:0.6 
1 0 1:0.079332 2:0.020427 3:0.607143 4:0.6 
1 0 1:0.072144 2:0.137419 3:0.635714 4:0.6 
0 1 1:0.030809 2:0.003714 3:0.828571 4:0.166667 
1 0 1:0.090372 2:0.132776 3:0.685714 4:0.6 
0 1 1:0.042978 2:0.146704 3:0.642857 4:0.166667 
0 1 1:0.032349 2:0.097029 3:0.657143 4:0.166667 
1 0 1:0.089859 2:0.142526 3:0.65 4:0.6 
0 1 1:0.078049 2:0.145775 3:0.592857 4:0.133333 
0 1 1:0.024647 2:0.031105 3:0.671429 4:0.166667 
1 0 1:0.088062 2:0.14299 3:0.657143 4:0.6 
1 0 1:0.028498 2:0.065924 3:0.6 4:0.6 
1 0 1:0.097818 2:0.118384 3:0.657143 4:0.6 
1 0 1:0.08344 2:0.101207 3:0.685714 4:0.6 
1 0 1:0.098331 2:0.145311 3:0.678571 4:0.6 
0 1 1:0.019769 2:0.042711 3:0.792857 4:0.166667 
1 0 1:0.113992 2:0.106778 3:0.657143 4:0.6 
1 0 1:0.115533 2:0.077994 3:0.664286 4:0.6 
1 0 1:0.118357 2:0.140669 3:0.657143 4:0.6 
0 1 1:0.021566 2:0.012535 3:0.814286 4:0.166667 
1 0 1:0.031579 2:0.035283 3:0.592857 4:0.6 
1 0 1:0.145058 2:0.162488 3:0.55 4:0.566667 
1 0 1:0.029679 2:0.034355 3:0.607143 4:0.6 
0 1 1:0.031579 2:0.009285 3:0.828571 4:0.166667 
1 0 1:0.076508 2:0.030641 3:0.614286 4:0.6 
0 1 1:0.027214 2:0.039926 3:0.771429 4:0.166667 
1 0 1:0.102696 2:0.121634 3:0.671429 4:0.6 
0 1 1:0.022593 2:0.089136 3:0.728571 4:0.166667 
0 0.3438233830271861 1:0.082157 2:0.038069 3:0.635714 4:0.166667 
1 0 1:0.09294 2:0.121634 3:0.692857 4:0.6 
0 1 1:0.037741 2:0.012535 3:0.828571 4:0.166667 
0 1 1:0.021823 2:0.029712 3:0.614286 4:0.166667 
0 1 1:0.014891 2:0.026462 3:0.571429 4:0.166667 
0 1 1:0.035687 2:0.033426 3:0.621429 4:0.166667 
0 1 1:0.022336 2:0.045497 3:0.628571 4:0.166667 
0 1 1:0.065982 2:0.024141 3:0.621429 4:0.166667 
0 1 1:0.042362 2:0.012071 3:0.821429 4:0.166667 
1 0 1:0.02516 2:0.026927 3:0.592857 4:0.6 
0 1 1:0.020026 2:0.027855 3:0.621429 4:0.166667 
1 0 1:0.017715 2:0.024141 3:0.607143 4:0.6 
1 0 1:0.069576 2:0.148097 3:0.55 4:0.566667 
1 0 1:0.005648 2:0.14299 3:0.514286 4:0.566667 
1 0 1:0.107574 2:0.118849 3:0.707143 4:0.6 
1 0 1:0.093453 2:0.137419 3:0.642857 4:0.6 
0 1 1:0.054942 2:0.125348 3:0.707143 4:0.166667 
1 0 1:0.080616 2:0.112813 3:0.685714 4:0.6 
1 0 1:0.079846 2:0.137883 3:0.685714 4:0.6 
1 0 1:0.116046 2:0.05571 3:0.678571 4:0.6 
1 0 1:0.040308 2:0.050139 3:0.664286 4:0.6 
1 0 1:0.027985 2:0.059424 3:0.657143 4:0.6 
1 0 1:0.026187 2:0.060353 3:0.657143 4:0.6 
1 0 1:0.064442 2:0.077066 3:0.685714 4:0.6 
1 0 1:0.056996 2:0.113742 3:0.692857 4:0.6 
0 1 1:0.064698 2:0.01532 3:0.835714 4:0.166667 
0 1 1:0.043646 2:0.115135 3:0.714286 4:0.166667 
1 0 1:0.08344 2:0.135562 3:0.657143 4:0.6 
0 1 1:0.019255 2:0.010678 3:0.828571 4:0.166667 
1 0 1:0.068806 2:0.02182 3:0.657143 4:0.6 
1 0 1:0.137356 2:0.129991 3:0.664286 4:0.6 
0 1 1:0.07086 2:0.145775 3:0.6 4:0.133333 
1 0 1:0.141207 2:0.147168 3:0.678571 4:0.6 
1 0 1:0.098588 2:0.116992 3:0.692857 4:0.6 
0 1 1:0.051605 2:0.022748 3:0.807143 4:0.166667 
0 1 1:0.034146 2:0.120706 3:0.714286 4:0.166667 
1 0 1:0.064442 2:0.136955 3:0.521429 4:0.566667 
0 1 1:0.093196 2:0.157382 3:0.592857 4:0.133333 
1 0 1:0.106804 2:0.153203 3:0.542857 4:0.566667 
1 0 1:0.089089 2:0.141133 3:0.65 4:0.6 
1 0 1:0.115789 2:0.150418 3:0.571429 4:0.566667 
1 0 1:0.118357 2:0.119313 3:0.692857 4:0.6 
1 0 1:0.098588 2:0.158774 3:0.65 4:0.6 
1 0 1:0.128113 2:0.096565 3:0.542857 4:0.566667 
1 0 1:0.111168 2:0.055246 3:0.7 4:0.6 
1 0 1:0.120924 2:0.151346 3:0.578571 4:0.566667 
0 1 1:0.054429 2:0.009285 3:0.828571 4:0.166667 
1 0 1:0.127856 2:0.16156 3:0.585714 4:0.566667 
0 1 1:0.003081 2:0.026927 3:0.771429 4:0.166667 
1 0 1:0.099101 2:0.079851 3:0.685714 4:0.6 
1 0 1:0.045956 2:0.170381 3:0.507143 4:0.566667 
1 0 1:0.058383 2:0.143686 3:0.635714 4:0.6 
1 0 1:0.163286 2:0.082173 3:0.65 4:0.6 
0 1 1:0.061874 2:0.161096 3:0.571429 4:0.133333 
0 1 1:0.05828 2:0.164345 3:0.592857 4:0.133333 
1 0 1:0.071374 2:0.109099 3:0.635714 4:0.6 
1 0 1:0.076765 2:0.096565 3:0.664286 4:0.6 
0 1 1:0.051348 2:0.0065 3:0.828571 4:0.166667 
0 1 1:0.079332 2:0.14299 3:0.685714 4:0.166667 
1 0 1:0.106804 2:0.104457 3:0.535714 4:0.566667 
1 0 1:0.071374 2:0.093779 3:0.678571 4:0.6 
0 1 1:0.023363 2:0.028319 3:0.778571 4:0.166667 
0 1 1:0.04878 2:0.007428 3:0.821429 4:0.166667 
1 0 1:0.100899 2:0.079387 3:0.685714 4:0.6 
0 1 1:0.044673 2:0.130919 3:0.664286 4:0.166667 
1 0 1:0.073684 2:0.172238 3:0.557143 4:0.566667 
1 0 1:0.049294 2:0.149489 3:0.664286 4:0.6 
0 1 1:0.035302 2:0 3:0.657143 4:0.166667 
1 0 1:0.072657 2:0.146704 3:0.642857 4:0.6 
0 1 1:0.007189 2:0.049211 3:0.642857 4:0.166667 
1 0 1:0.088241 2:0.111513 3:0.7 4:0.6 
1 0 1:0.032863 2:0.16156 3:0.65 4:0.6 
0 1 1:0.051348 2:0.139276 3:0.685714 4:0.166667 
1 0 1:0.07163 2:0.122563 3:0.678571 4:0.6 
1 0 1:0.047754 2:0.113742 3:0.671429 4:0.6 
0 1 1:0.035687 2:0.098422 3:0.678571 4:0.166667 
0 1 1:0.030809 2:0.137419 3:0.571429 4:0.133333 
0 1 1:0.050321 2:0.127669 3:0.692857 4:0.166667 
0 1 1:0.031579 2:0.012071 3:0.778571 4:0.166667 
0 1 1:0.084467 2:0.147632 3:0.542857 4:0.133333 
0 1 1:0.069936 2:0.159424 3:0.578571 4:0.133333 
1 0 1:0.064185 2:0.081244 3:0.671429 4:0.6 
0 1 1:0.044416 2:0.147168 3:0.678571 4:0.166667 
1 0 1:0.072144 2:0.148561 3:0.635714 4:0.6 
0 1 1:0.073684 2:0.138347 3:0.607143 4:0.133333 
1 0 1:0.075738 2:0.149489 3:0.65 4:0.6 
0 1 1:0.030809 2:0.129526 3:0.678571 4:0.166667 
0 1 1:0.029268 2:0 3:0.564286 4:0.166667 
0 0.5935545774343038 1:0.021566 2:0.059889 3:0.678571 4:0.166667 
0 1 1:0.010783 2:0.00325 3:0.807143 4:0.166667 
1 0 1:0.072401 2:0.047818 3:0.614286 4:0.6 
1 0 1:0.080359 2:0 3:0.628571 4:0.6 
0 1 1:0.060591 2:0.134633 3:0.721429 4:0.166667 
0 1 1:0.114506 2:0.154596 3:0.607143 4:0.133333 
1 0 1:0.064955 2:0.127669 3:0.492857 4:0.566667 
1 0 1:0.066239 2:0.027391 3:0.478571 4:0.566667 
1 0 1:0.098331 2:0.15506 3:0.564286 4:0.566667 
0 1 1:0.086521 2:0.129991 3:0.707143 4:0.166667 
0 1 1:0.029756 2:0.13519 3:0.685714 4:0.166667 
1 0 1:0.074198 2:0.160167 3:0.55 4:0.566667 
0 1 1:0.030552 2:0.097493 3:0.7 4:0.166667 
0 1 1:0.0457 2:0.124884 3:0.557143 4:0.133333 
1 0 1:0.07009 2:0.149954 3:0.542857 4:0.566667 
0 1 1:0.081386 2:0.151346 3:0.578571 4:0.133333 
1 0 1:0.086008 2:0.082637 3:0.514286 4:0.566667 
0 1 1:0.055969 2:0.129991 3:0.578571 4:0.133333 
0 1 1:0.090629 2:0.154596 3:0.478571 4:0.133333 
0 1 1:0.058203 2:0.144568 3:0.564286 4:0.133333 
1 0 1:0.107574 2:0.16481 3:0.514286 4:0.566667 
0 1 1:0.08267 2:0.129991 3:0.55 4:0.133333 
0 1 1:0.080205 2:0.163185 3:0.592857 4:0.133333 
1 0 1:0.145828 2:0.147168 3:0.535714 4:0.566667 
0 1 1:0.024904 2:0.031569 3:0.642857 4:0.166667 
1 0 1:0.146085 2:0.151346 3:0.55 4:0.566667 
0 1 1:0.053145 2:0.022748 3:0.821429 4:0.166667 
0 1 1:0.061104 2:0.151811 3:0.657143 4:0.166667 
0 1 1:0.064185 2:0.161096 3:0.521429 4:0.133333 
0 1 1:0.069833 2:0.131383 3:0.507143 4:0.133333 
1 0 1:0.077227 2:0.111281 3:0.692857 4:0.6 
1 0 1:0.143774 2:0.128598 3:0.664286 4:0.6 
0 1 1:0.133017 2:0.080548 3:0.735714 4:0.166667 
1 0 1:0.160462 2:0.164345 3:0.414286 4:0.533333 
0 1 1:0.064442 2:0.011142 3:0.778571 4:0.166667 
1 0 1:0.091656 2:0.092851 3:0.528571 4:0.566667 
1 0 1:0.147882 2:0.156453 3:0.542857 4:0.566667 
0 1 1:0.033684 2:0.012256 3:0.807143 4:0.166667 
0 1 1:0.091656 2:0.159239 3:0.628571 4:0.133333 
1 0 1:0.073427 2:0.087744 3:0.542857 4:0.566667 
0 1 1:0.045751 2:0.02572 3:0.807143 4:0.166667 
1 0 1:0.120924 2:0.105385 3:0.65 4:0.6 
0 1 1:0.093376 2:0.151346 3:0.5 4:0.133333 
0 1 1:0.005905 2:0.072888 3:0.735714 4:0.166667 
0 1 1:0.031836 2:0.13324 3:0.55 4:0.133333 
0 1 1:0.037895 2:0.105664 3:0.692857 4:0.166667 
0 1 1:0.007805 2:0.127066 3:0.685714 4:0.166667 
0 1 1:0.040282 2:0.004643 3:0.842857 4:0.166667 
1 0 1:0.007445 2:0.129991 3:0.614286 4:0.6 
1 0 1:0.141463 2:0.069174 3:0.55 4:0.566667 
1 0 1:0.087035 2:0.138812 3:0.55 4:0.566667 
0 1 1:0.135302 2:0.153203 3:0.585714 4:0.133333 
1 0 1:0.114069 2:0.117177 3:0.514286 4:0.566667 
1 0 1:0.108858 2:0.116992 3:0.557143 4:0.566667 
0 1 1:0.088139 2:0.154271 3:0.607143 4:0.133333 
0 1 1:0.018537 2:0.133426 3:0.65 4:0.166667 
1 0 1:0.127343 2:0.144847 3:0.55 4:0.566667 
0 1 1:0.03543 2:0.115135 3:0.692857 4:0.166667 
0 1 1:0.07163 2:0.14299 3:0.685714 4:0.166667 
0 1 1:0.032349 2:0.116992 3:0.685714 4:0.166667 
1 0 1:0.090886 2:0.034355 3:0.492857 4:0.566667 
0 1 1:0.065469 2:0.149489 3:0.6 4:0.133333 
0 1 1:0.028755 2:0.006964 3:0.814286 4:0.166667 
1 0 1:0.11335 2:0.151532 3:0.535714 4:0.566667 
1 0 1:0.125032 2:0.089601 3:0.7 4:0.6 
1 0 1:0.073427 2:0.094243 3:0.485714 4:0.566667 
0 1 1:0.068549 2:0.005571 3:0.828571 4:0.166667 
1 0 1:0.089345 2:0.138347 3:0.514286 4:0.566667 
0 1 1:0.045443 2:0.149954 3:0.571429 4:0.133333 
0 1 1:0.044159 2:0.107242 3:0.692857 4:0.166667 
0 1 1:0.048267 2:0.159239 3:0.642857 4:0.166667 
0 1 1:0.055866 2:0 3:0.607143 4:0.166667 
1 0 1:0.037484 2:0.07428 3:0.621429 4:0.6 
1 0 1:0.128626 2:0.155525 3:0.578571 4:0.566667 
1 0 1:0.121438 2:0.160631 3:0.571429 4:0.566667 
0 1 1:0.007189 2:0.113278 3:0.657143 4:0.166667 
1 0 1:0.043979 2:0.116202 3:0.521429 4:0.566667 
1 0 1:0.09525 2:0.091458 3:0.678571 4:0.6 
1 0 1:0.088575 2:0.049675 3:0.614286 4:0.6 
1 0 1:0.087548 2:0.128134 3:0.657143 4:0.6 
0 1 1:0.037227 2:0.022284 3:0.8 4:0.166667 
0 1 1:0.044673 2:0.025998 3:0.785714 4:0.166667 
0 1 1:0.046727 2:0.116992 3:0.707143 4:0.166667 
1 0 1:0.029268 2:0.050604 3:0.628571 4:0.6 
1 0 1:0.067728 2:0.100975 3:0.528571 4:0.566667 
0 1 1:0.061104 2:0.153668 3:0.607143 4:0.133333 
0 1 1:0.044416 2:0.113278 3:0.678571 4:0.166667 
0 1 1:0.014377 2:0.023677 3:0.807143 4:0.166667 
0 1 1:0.030809 2:0.005107 3:0.821429 4:0.166667 
0 1 1:0.073684 2:0.113278 3:0.578571 4:0.133333 
0 1 1:0.033119 2:0.010678 3:0.785714 4:0.166667 
1 0 1:0.016431 2:0.141597 3:0.521429 4:0.566667 
0 1 1:0.015661 2:0.025534 3:0.807143 4:0.166667 
1 0 1:0.162003 2:0.155989 3:0.557143 4:0.566667 
0 1 1:0.021053 2:0.154132 3:0.628571 4:0.166667 
1 0 1:0.103723 2:0.15831 3:0.557143 4:0.566667 
0 1 1:0.030809 2:0.129062 3:0.642857 4:0.166667 
0 1 1:0.050321 2:0.143918 3:0.564286 4:0.133333 
0 1 1:0.002054 2:0.038997 3:0.764286 4:0.166667 
0 1 1:0.044416 2:0.017177 3:0.821429 4:0.166667 
1 0 1:0.018228 2:0.032498 3:0.65 4:0.6 
0 1 1:0.058023 2:0.148097 3:0.585714 4:0.133333 
1 0 1:0.131451 2:0.145775 3:0.564286 4:0.566667 
0 1 1:0.084724 2:0.16156 3:0.564286 4:0.133333 
0 1 1:0.074198 2:0.14299 3:0.607143 4:0.133333 
0 1 1:0.117073 2:0.129991 3:0.55 4:0.133333 
1 0 1:0.129397 2:0.110492 3:0.707143 4:0.6 
0 1 1:0.03697 2:0.000929 3:0.828571 4:0.166667 
1 0 1:0.044416 2:0.092386 3:0.635714 4:0.6 
0 1 1:0.059564 2:0.111885 3:0.564286 4:0.133333 
0 1 1:0.050578 2:0.034355 3:0.778571 4:0.166667 
0 1 1:0.087548 2:0.149025 3:0.578571 4:0.133333 
0 1 1:0.021309 2:0.047818 3:0.664286 4:0.166667 
0 1 1:0.001284 2:0.143918 3:0.664286 4:0.166667 
0 1 1:0.022336 2:0.012071 3:0.778571 4:0.166667 
0 1 1:0.023877 2:0.061281 3:0.65 4:0.166667 
0 1 1:0.009756 2:0.001393 3:0.814286 4:0.166667 
0 1 1:0.025417 2:0.059424 3:0.671429 4:0.166667 
1 0 1:0.130424 2:0.13649 3:0.664286 4:0.6 
0 1 1:0.08267 2:0.131848 3:0.564286 4:0.133333 
0 1 1:0.017972 2:0.002786 3:0.814286 4:0.166667 
0 1 1:0.055969 2:0.10585 3:0.578571 4:0.133333 
0 1 1:0.051605 2:0.12117 3:0.692857 4:0.166667 
1 0 1:0.039332 2:0 3:0.6 4:0.6 
1 0 1:0.153787 2:0.092386 3:0.564286 4:0.566667 
1 0 1:0.122208 2:0.058032 3:0.542857 4:0.566667 
0 1 1:0.091913 2:0.158774 3:0.607143 4:0.133333 
1 0 1:0.078049 2:0.077066 3:0.642857 4:0.6 
0 1 1:0.040822 2:0.143454 3:0.65 4:0.166667 
0 0.6207197008119574 1:0.016688 2:0.005107 3:0.807143 4:0.166667 
0 1 1:0.077022 2:0.149489 3:0.678571 4:0.166667 
0 0.1290518351945411 1:0.015918 2:0.109099 3:0.592857 4:0.166667 
0 1 1:0.039024 2:0.127669 3:0.664286 4:0.166667 
0 1 1:0.012323 2:0.013928 3:0.828571 4:0.166667 
1 0 1:0.024904 2:0.053853 3:0.45 4:0.566667 
0 1 1:0.030295 2:0.06156 3:0.657143 4:0.166667 
0 1 1:0.030552 2:0.114206 3:0.671429 4:0.166667 
1 0 1:0.163543 2:0.152275 3:0.542857 4:0.566667 
0 1 1:0.020282 2:0.086815 3:0.664286 4:0.166667 
0 1 1:0.054685 2:0.12117 3:0.707143 4:0.166667 
0 1 1:0.036714 2:0.026927 3:0.8 4:0.166667 
0 1 1:0.064442 2:0.131383 3:0.592857 4:0.133333 
0 1 1:0.063158 2:0.079851 3:0.55 4:0.133333 
1 0 1:0.055199 2:0.134169 3:0.692857 4:0.6 
0 1 1:0.04724 2:0.084958 3:0.514286 4:0.133333 
0 1 1:0.044673 2:0.016249 3:0.8 4:0.166667 
0 1 1:0.071117 2:0.152275 3:0.578571 4:0.133333 
0 1 1:0.03697 2:0.125348 3:0.678571 4:0.166667 
1 0 1:0.072144 2:0.122098 3:0.521429 4:0.566667 
0 1 1:0.020796 2:0.092851 3:0.664286 4:0.166667 
1 0 1:0.152246 2:0.137419 3:0.664286 4:0.6 
1 0 1:0.167908 2:0.151811 3:0.564286 4:0.566667 
0 1 1:0.020026 2:0.0065 3:0.828571 4:0.166667 
1 0 1:0.037689 2:0.147493 3:0.514286 4:0.566667 
1 0 1:0.14095 2:0.157846 3:0.585714 4:0.566667 
0 1 1:0.019512 2:0.094708 3:0.628571 4:0.166667 
0 1 1:0.103209 2:0.056175 3:0.65 4:0.166667 
0 1 1:0.07009 2:0.141597 3:0.6 4:0.133333 
0 1 1:0.030809 2:0.04039 3:0.785714 4:0.166667 
1 0 1:0.04647 2:0.078459 3:0.528571 4:0.566667 
1 0 1:0.118357 2:0.159703 3:0.55 4:0.566667 
0 1 1:0.039281 2:0.133705 3:0.65 4:0.166667 
0 1 1:0.078306 2:0.082637 3:0.571429 4:0.133333 
1 0 1:0.165597 2:0.074745 3:0.678571 4:0.6 
1 0 1:0.067522 2:0.090065 3:0.628571 4:0.6 
0 1 1:0.019512 2:0.009285 3:0.835714 4:0.166667 
1 0 1:0.10819 2:0 3:0.671429 4:0.6 
1 0 1:0.055096 2:0.088208 3:0.535714 4:0.566667 
1 0 1:0.066752 2:0.111885 3:0.664286 4:0.6 
0 1 1:0.044159 2:0.012535 3:0.778571 4:0.166667 
0 1 1:0.037997 2:0.018106 3:0.8 4:0.166667 
0 1 1:0.019795 2:0.00636 3:0.821429 4:0.166667 
0 1 1:0.014634 2:0.045497 3:0.657143 4:0.166667 
0 0.7827083423883333 1:0.043646 2:0.013928 3:0.807143 4:0.166667 
0 1 1:0.018742 2:0.075673 3:0.707143 4:0.166667 
0 1 1:0.030039 2:0.066852 3:0.657143 4:0.166667 
0 1 1:0.026701 2:0.083565 3:0.692857 4:0.166667 
0 1 1:0.016688 2:0.131848 3:0.664286 4:0.166667 
1 0 1:0.094223 2:0.149025 3:0.507143 4:0.566667 
1 0 1:0.174326 2:0.162488 3:0.585714 4:0.566667 
1 0 1:0.063415 2:0.153668 3:0.635714 4:0.6 
0 1 1:0.032349 2:0.123027 3:0.65 4:0.166667 
1 0 1:0.043646 2:0.116992 3:0.65 4:0.6 
1 0 1:0.067779 2:0.11792 3:0.514286 4:0.566667 
0 1 1:0.049294 2:0.121634 3:0.514286 4:0.133333 
1 0 1:0.109114 2:0.153203 3:0.535714 4:0.566667 
0 1 1:0.017972 2:0.133705 3:0.621429 4:0.166667 
1 0 1:0.106341 2:0.135097 3:0.557143 4:0.566667 
0 1 1:0.038254 2:0.110028 3:0.692857 4:0.166667 
1 0 1:0.084981 2:0.140669 3:0.528571 4:0.566667 
1 0 1:0.121438 2:0.14299 3:0.692857 4:0.6 
0 1 1:0.085109 2:0 3:0.557143 4:0.166667 
1 0 1:0.154814 2:0.128134 3:0.528571 4:0.566667 
1 0 1:0.107831 2:0.13649 3:0.65 4:0.6 
1 0 1:0.02439 2:0.110028 3:0.635714 4:0.6 
1 0 1:0.050321 2:0.038533 3:0.507143 4:0.566667 
0 1 1:0.022336 2:0.049211 3:0.664286 4:0.166667 
0 1 1:0.03466 2:0.096565 3:0.714286 4:0.166667 
0 1 1:0.006162 2:0.06546 3:0.685714 4:0.166667 
1 0 1:0.09294 2:0.093315 3:0.642857 4:0.6 
0 1 1:0.172015 2:0.148097 3:0.6 4:0.133333 
1 0 1:0.069063 2:0.08403 3:0.621429 4:0.6 
1 0 1:0.074711 2:0.105385 3:0.664286 4:0.6 
0 1 1:0.055456 2:0.13649 3:0.55 4:0.133333 
1 0 1:0.053325 2:0.094568 3:0.535714 4:0.566667 
0 1 1:0.018999 2:0.070566 3:0.621429 4:0.166667 
0 1 1:0.03389 2:0.110028 3:0.692857 4:0.166667 
0 1 1:0.015918 2:0.112813 3:0.678571 4:0.166667 
1 0 1:0.138639 2:0.165274 3:0.557143 4:0.566667 
1 0 1:0.109884 2:0.155989 3:0.571429 4:0.566667 
0 1 1:0.02439 2:0.065924 3:0.607143 4:0.166667 
0 1 1:0.074711 2:0.155525 3:0.564286 4:0.133333 
1 0 1:0.086778 2:0.141597 3:0.685714 4:0.6 
0 1 1:0.056739 2:0.030176 3:0.8 4:0.166667 
0 1 1:0.015404 2:0.059889 3:0.685714 4:0.166667 
0 1 1:0.029268 2:0.112349 3:0.657143 4:0.166667 
1 0 1:0.04878 2:0.126741 3:0.642857 4:0.6 
1 0 1:0.121926 2:0.142943 3:0.514286 4:0.566667 
0 0.9067998999254854 1:0.091091 2:0.029759 3:0.6 4:0.166667 
0 1 1:0.07086 2:0.13974 3:0.685714 4:0.166667 
1 0 1:0.042875 2:0.119313 3:0.635714 4:0.6 
1 0 1:0.020539 2:0.072888 3:0.6 4:0.6 
0 1 1:0.015148 2:0.041783 3:0.785714 4:0.166667 
0 1 1:0.007959 2:0.068709 3:0.628571 4:0.166667 
1 0 1:0.125494 2:0.120056 3:0.514286 4:0.566667 
0 1 1:0.006162 2:0.008357 3:0.75 4:0.166667 
0 1 1:0.020539 2:0.025534 3:0.592857 4:0.166667 
1 0 1:0.043646 2:0.115135 3:0.671429 4:0.6 
0 1 1:0.047754 2:0.036676 3:0.785714 4:0.166667 
1 0 1:0.145315 2:0.062674 3:0.671429 4:0.6 
0 1 1:0.041104 2:0.11286 3:0.664286 4:0.166667 
1 0 1:0.112452 2:0.147168 3:0.535714 4:0.566667 
0 1 1:0.039024 2:0.006964 3:0.835714 4:0.166667 
0 1 1:0.05828 2:0.135097 3:0.578571 4:0.133333 
0 1 1:0.026444 2:0.009285 3:0.821429 4:0.166667 
1 0 1:0.071374 2:0.176416 3:0.714286 4:0.6 
0 1 1:0.031579 2:0.120706 3:0.657143 4:0.166667 
1 0 1:0.098588 2:0.130919 3:0.55 4:0.566667 
1 0 1:0.069063 2:0.08403 3:0.65 4:0.6 
1 0 1:0.177407 2:0.147632 3:0.55 4:0.566667 
1 0 1:0.094223 2:0.159703 3:0.571429 4:0.566667 
0 1 1:0.014634 2:0.009749 3:0.807143 4:0.166667 
1 0 1:0.148395 2:0.124884 3:0.521429 4:0.566667 
1 0 1:0.068549 2:0.06546 3:0.65 4:0.6 
0 1 1:0.03697 2:0.108635 3:0.65 4:0.166667 
1 0 1:0.099435 2:0.082312 3:0.7 4:0.6 
0 1 1:0.031065 2:0.151346 3:0.621429 4:0.166667 
0 1 1:0.046213 2:0.11467 3:0.721429 4:0.166667 
0 1 1:0.088318 2:0.138347 3:0.728571 4:0.166667 
1 0 1:0.05905 2:0.058496 3:0.628571 4:0.6 
0 1 1:0.061617 2:0.141133 3:0.678571 4:0.166667 
0 1 1:0.029012 2:0.007428 3:0.764286 4:0.166667 
1 0 1:0.009243 2:0.139276 3:0.471429 4:0.566667 
1 0 1:0.125032 2:0.059424 3:0.55 4:0.566667 
0 1 1:0.044416 2:0.017642 3:0.771429 4:0.166667 
0 1 1:0.052888 2:0.12442 3:0.564286 4:0.133333 
0 1 1:0.089345 2:0.129991 3:0.728571 4:0.166667 
0 1 1:0.127086 2:0.13974 3:0.414286 4:0.133333 
0 1 1:0.018999 2:0.001393 3:0.628571 4:0.166667 
0 1 1:0.036714 2:0.133705 3:0.642857 4:0.166667 
1 0 1:0.018999 2:0.126741 3:0.657143 4:0.6 
0 1 1:0.026701 2:0.039926 3:0.828571 4:0.166667 
1 0 1:0.114506 2:0.113278 3:0.564286 4:0.566667 
0 1 1:0.060334 2:0.025998 3:0.621429 4:0.166667 
1 0 1:0.134788 2:0.116063 3:0.678571 4:0.6 
1 0 1:0.148909 2:0.118849 3:0.7 4:0.6 
1 0 1:0.082157 2:0.063603 3:0.65 4:0.6 
1 0 1:0.123235 2:0.155989 3:0.55 4:0.566667 
0 1 1:0.070347 2:0.162953 3:0.45 4:0.133333 
0 0.5790311307367072 1:0.024647 2:0.078459 3:0.692857 4:0.166667 
0 1 1:0.032863 2:0.024141 3:0.65 4:0.166667 
1 0 1:0.085494 2:0.077994 3:0.628571 4:0.6 
1 0 1:0.160205 2:0.13324 3:0.671429 4:0.6 
1 0 1:0.131451 2:0.159006 3:0.542857 4:0.566667 
0 1 1:0.025417 2:0.113278 3:0.664286 4:0.166667 
0 1 1:0.011553 2:0.067781 3:0.607143 4:0.166667 
1 0 1:0.109884 2:0.162024 3:0.528571 4:0.566667 
0 1 1:0.039538 2:0.129526 3:0.678571 4:0.166667 
1 0 1:0.16534 2:0.163881 3:0.6 4:0.566667 
0 1 1:0.083954 2:0.119777 3:0.542857 4:0.133333 
0 1 1:0.090629 2:0.141597 3:0.592857 4:0.133333 
0 1 1:0.014891 2:0.071495 3:0.692857 4:0.166667 
0 1 1:0.023107 2:0.106314 3:0.7 4:0.166667 
1 0 1:0.089089 2:0.081244 3:0.65 4:0.6 
0 1 1:0.055969 2:0.140204 3:0.657143 4:0.166667 
1 0 1:0.153017 2:0.162024 3:0.571429 4:0.566667 
0 1 1:0.057766 2:0.127205 3:0.678571 4:0.166667 
1 0 1:0.012323 2:0.14624 3:0.657143 4:0.6 
1 0 1:0.051091 2:0.083565 3:0.607143 4:0.6 
0 1 1:0.019512 2:0.090529 3:0.742857 4:0.166667 
1 0 1:0.131194 2:0.135097 3:0.664286 4:0.6 
1 0 1:0.052632 2:0.121634 3:0.514286 4:0.566667 
1 0 1:0.115789 2:0.105385 3:0.528571 4:0.566667 
0 1 1:0.019769 2:0.097029 3:0.621429 4:0.166667 
0 1 1:0.045443 2:0.149489 3:0.65 4:0.166667 
0 1 1:0.047548 2:0.133844 3:0.671429 4:0.166667 
1 0 1:0.071374 2:0.060817 3:0.521429 4:0.566667 
1 0 1:0.116816 2:0.132312 3:0.714286 4:0.6 
0 1 1:0.050321 2:0.127669 3:0.678571 4:0.166667 
1 0 1:0.053915 2:0.1026 3:0.535714 4:0.566667 
1 0 1:0.159615 2:0.162163 3:0.578571 4:0.566667 
1 0 1:0.141463 2:0.161096 3:0.542857 4:0.566667 
1 0 1:0.136072 2:0.145775 3:0.557143 4:0.566667 
0 1 1:0.016688 2:0.031105 3:0.671429 4:0.166667 
1 0 1:0.067009 2:0.13974 3:0.535714 4:0.566667 
1 0 1:0.099358 2:0.143918 3:0.514286 4:0.566667 
1 0 1:0.098588 2:0.104921 3:0.521429 4:0.566667 
0 1 1:0.061617 2:0.144383 3:0.55 4:0.133333 
1 0 1:0.093967 2:0.128598 3:0.65 4:0.6 
0 1 1:0.065469 2:0.149025 3:0.578571 4:0.133333 
0 1 1:0.03543 2:0.04039 3:0.778571 4:0.166667 
1 0 1:0.139923 2:0.119777 3:0.55 4:0.566667 
0 1 1:0.134506 2:0.158728 3:0.578571 4:0.133333 
0 1 1:0.045443 2:0.143454 3:0.592857 4:0.133333 
1 0 1:0.131194 2:0.162953 3:0.542857 4:0.566667 
1 0 1:0.148139 2:0.16481 3:0.564286 4:0.566667 
0 1 1:0.088062 2:0.144847 3:0.564286 4:0.133333 
0 1 1:0.092426 2:0.149489 3:0.685714 4:0.166667 
0 1 1:0.020282 2:0.032033 3:0.635714 4:0.166667 
1 0 1:0.158665 2:0.155525 3:0.571429 4:0.566667 
1 0 1:0.147882 2:0.160631 3:0.578571 4:0.566667 
0 0.8798406337822164 1:0.050244 2:0 3:0.821429 4:0.166667 
1 0 1:0.099615 2:0.009285 3:0.642857 4:0.6 
1 0 1:0.131451 2:0.167595 3:0.557143 4:0.566667 
0 1 1:0.04878 2:0.019499 3:0.814286 4:0.166667 
0 1 1:0.072144 2:0.163881 3:0.614286 4:0.133333 
1 0 1:0.142747 2:0.165738 3:0.564286 4:0.566667 
1 0 1:0.148652 2:0.035283 3:0.542857 4:0.566667 
1 0 1:0.082413 2:0.150418 3:0.528571 4:0.566667 
1 0 1:0.056739 2:0.163881 3:0.557143 4:0.566667 
0 1 1:0.028498 2:0.127669 3:0.714286 4:0.166667 
1 0 1:0.109114 2:0.13649 3:0.664286 4:0.6 
1 0 1:0.207959 2:0.162024 3:0.464286 4:0.533333 
0 1 1:0.045186 2:0.110028 3:0.678571 4:0.166667 
0 1 1:0.071887 2:0.154596 3:0.7 4:0.166667 
0 1 1:0.087291 2:0.16156 3:0.571429 4:0.133333 
0 1 1:0.050321 2:0.119313 3:0.7 4:0.166667 
0 1 1:0.059307 2:0.123955 3:0.685714 4:0.166667 
0 1 1:0.055712 2:0.138347 3:0.685714 4:0.166667 
0 1 1:0.045956 2:0.150418 3:0.65 4:0.166667 
1 0 1:0.149166 2:0.071495 3:0.671429 4:0.6 
0 1 1:0.027985 2:0.12117 3:0.642857 4:0.166667 
1 0 1:0.146341 2:0.135562 3:0.671429 4:0.6 
1 0 1:0.061617 2:0.038997 3:0.657143 4:0.6 
1 0 1:0.088832 2:0.161096 3:0.528571 4:0.566667 
0 1 1:0.055199 2:0.028784 3:0.807143 4:0.166667 
0 1 1:0.085135 2:0.125998 3:0.707143 4:0.166667 
0 0.8578866590673635 1:0.041592 2:0.01532 3:0.814286 4:0.166667 
1 0 1:0.153273 2:0.156917 3:0.578571 4:0.566667 
1 0 1:0.128113 2:0.162953 3:0.571429 4:0.566667 
0 1 1:0.024904 2:0.022284 3:0.778571 4:0.166667 
0 1 1:0.061617 2:0.119777 3:0.7 4:0.166667 
1 0 1:0.152246 2:0.149954 3:0.664286 4:0.6 
0 1 1:0.047497 2:0.152739 3:0.657143 4:0.166667 
1 0 1:0.126059 2:0.107242 3:0.692857 4:0.6 
1 0 1:0.167908 2:0.159703 3:0.571429 4:0.566667 
1 0 1:0.133248 2:0.128134 3:0.671429 4:0.6 
0 1 1:0.040822 2:0.135562 3:0.685714 4:0.166667 
0 1 1:0.040051 2:0.008821 3:0.828571 4:0.166667 
0 1 1:0.088318 2:0.144847 3:0.614286 4:0.133333 
0 1 1:0.135045 2:0.153203 3:0.535714 4:0.133333 
1 0 1:0.018228 2:0.036212 3:0.478571 4:0.566667 
1 0 1:0.111425 2:0.029712 3:0.685714 4:0.6 
0 1 1:0.042105 2:0.002321 3:0.664286 4:0.166667 
0 1 1:0.032863 2:0.053389 3:0.778571 4:0.166667 
1 0 1:0.126573 2:0.112349 3:0.664286 4:0.6 
1 0 1:0.122465 2:0.162488 3:0.55 4:0.566667 
0 1 1:0.049294 2:0.010214 3:0.778571 4:0.166667 
0 1 1:0.058023 2:0.025534 3:0.814286 4:0.166667 
1 0 1:0.014814 2:0.140111 3:0.642857 4:0.6 
1 0 1:0.018228 2:0.03389 3:0.6 4:0.6 
0 1 1:0.035173 2:0.007428 3:0.835714 4:0.166667 
1 0 1:0.084211 2:0.160167 3:0.55 4:0.566667 
0 1 1:0.02439 2:0.011142 3:0.835714 4:0.166667 
1 0 1:0.098074 2:0.123027 3:0.664286 4:0.6 
1 0 1:0.142234 2:0.104921 3:0.7 4:0.6 
0 1 1:0.105263 2:0.163881 3:0.535714 4:0.133333 
1 0 1:0.176123 2:0.163417 3:0.564286 4:0.566667 
0 1 1:0.061361 2:0.151346 3:0.55 4:0.133333 
1 0 1:0.144005 2:0.156267 3:0.571429 4:0.566667 
1 0 1:0.075738 2:0.124373 3:0.642857 4:0.6 
1 0 1:0.10706 2:0.142061 3:0.571429 4:0.566667 
0 1 1:0.012067 2:0.336119 3:0.585714 4:0.166667 
1 0 1:0.084621 2:0 3:0.6 4:0.6 
0 0.3927551215584897 1:0.03389 2:0.02182 3:0.814286 4:0.166667 
0 1 1:0.024134 2:0.037604 3:0.814286 4:0.166667 
1 0 1:0.102696 2:0.091922 3:0.685714 4:0.6 
0 1 1:0.038768 2:0.010214 3:0.821429 4:0.166667 
0 1 1:0.045186 2:0.149025 3:0.671429 4:0.166667 
0 1 1:0.029525 2:0.041783 3:0.778571 4:0.166667 
0 1 1:0.04801 2:0.132776 3:0.564286 4:0.133333 
1 0 1:0.124519 2:0.16156 3:0.557143 4:0.566667 
0 1 1:0.01258 2:0.150882 3:0.621429 4:0.166667 
0 1 1:0.012067 2:0.152275 3:0.614286 4:0.166667 
0 1 1:0.065725 2:0.160167 3:0.614286 4:0.133333 
1 0 1:0.084211 2:0.088208 3:0.678571 4:0.6 
0 1 1:0.042875 2:0.122098 3:0.671429 4:0.166667 
0 1 1:0.046213 2:0.131848 3:0.685714 4:0.166667 
1 0 1:0.073941 2:0.13649 3:0.514286 4:0.566667 
1 0 1:0.080616 2:0.025998 3:0.764286 4:0.633333 
1 0 1:0.040565 2:0.075673 3:0.642857 4:0.6 
0 1 1:0.012323 2:0.147632 3:0.514286 4:0.133333 
0 1 1:0.058023 2:0.123955 3:0.685714 4:0.166667 
1 0 1:0.011297 2:0.151346 3:0.5 4:0.566667 
0 1 1:0.059564 2:0.147447 3:0.678571 4:0.166667 
1 0 1:0.135635 2:0.152414 3:0.664286 4:0.6 
0 1 1:0.039538 2:0.129991 3:0.671429 4:0.166667 
1 0 1:0.113479 2:0.029712 3:0.542857 4:0.566667 
1 0 1:0.109114 2:0.034355 3:0.528571 4:0.566667 
0 1 1:0.04878 2:0.150882 3:0.65 4:0.166667 
0 1 1:0.056739 2:0.007428 3:0.771429 4:0.166667 
0 1 1:0.042875 2:0.004178 3:0.85 4:0.166667 
1 0 1:0.140693 2:0.159703 3:0.671429 4:0.6 
0 1 1:0.038511 2:0.005571 3:0.835714 4:0.166667 
0 1 1:0.017972 2:0.042711 3:0.635714 4:0.166667 
0 1 1:0.048267 2:0.098422 3:0.564286 4:0.133333 
1 0 1:0.123748 2:0.132776 3:0.692857 4:0.6 
1 0 1:0.108344 2:0.149489 3:0.55 4:0.566667 
0 1 1:0.042362 2:0.145775 3:0.578571 4:0.133333 
0 1 1:0.065469 2:0.019499 3:0.807143 4:0.166667 
0 1 1:0.042619 2:0.112813 3:0.692857 4:0.166667 
0 1 1:0.030295 2:0 3:0.821429 4:0.166667 
0 1 1:0.007137 2:0.086583 3:0.7 4:0.166667 
0 1 1:0.011297 2:0.024605 3:0.657143 4:0.166667 
1 0 1:0.112709 2:0.128134 3:0.65 4:0.6 
1 0 1:0.110141 2:0.163881 3:0.678571 4:0.6 
0 1 1:0.019255 2:0.028319 3:0.628571 4:0.166667 
0 1 1:0.015918 2:0.02507 3:0.607143 4:0.166667 
0 1 1:0.03466 2:0.005107 3:0.85 4:0.166667 
0 1 1:0.0457 2:0.029712 3:0.807143 4:0.166667 
1 0 1:0.15353 2:0.163417 3:0.557143 4:0.566667 
0 1 1:0.048524 2:0.129062 3:0.707143 4:0.166667 
1 0 1:0.046727 2:0.116527 3:0.5 4:0.566667 
1 0 1:0.114249 2:0.037604 3:0.757143 4:0.633333 
1 0 1:0.048267 2:0.052461 3:0.742857 4:0.633333 
1 0 1:0.013094 2:0.022748 3:0.471429 4:0.566667 
1 0 1:0.129012 2:0 3:0.685714 4:0.6 
0 1 1:0.066752 2:0.150882 3:0.685714 4:0.166667 
0 1 1:0.055456 2:0.148097 3:0.6 4:0.133333 
0 1 1:0.108087 2:0.14624 3:0.578571 4:0.133333 
0 1 1:0.061617 2:0.153668 3:0.557143 4:0.133333 
0 1 1:0.006932 2:0.134633 3:0.592857 4:0.166667 
0 1 1:0.030834 2:0.100325 3:0.671429 4:0.166667 
1 0 1:0.10706 2:0.085422 3:0.678571 4:0.6 
1 0 1:0.014634 2:0.073816 3:0.492857 4:0.566667 
0 1 1:0.021053 2:0.017642 3:0.764286 4:0.166667 
0 1 1:0.052375 2:0.011606 3:0.785714 4:0.166667 
0 1 1:0.031579 2:0.13324 3:0.685714 4:0.166667 
0 1 1:0.055969 2:0.016249 3:0.828571 4:0.166667 
0 1 1:0.021309 2:0.104457 3:0.628571 4:0.166667 
1 0 1:0.145083 2:0.130084 3:0.7 4:0.6 
1 0 1:0.080873 2:0.138347 3:0.664286 4:0.6 
1 0 1:0.118614 2:0.157382 3:0.528571 4:0.566667 
1 0 1:0.127343 2:0.108635 3:0.657143 4:0.6 
0 1 1:0.022336 2:0.140204 3:0.607143 4:0.166667 
0 1 1:0.042619 2:0.021356 3:0.614286 4:0.166667 
0 1 1:0.033633 2:0.028319 3:0.771429 4:0.166667 
0 1 1:0.064185 2:0.140204 3:0.671429 4:0.166667 
1 0 1:0.146855 2:0.161096 3:0.557143 4:0.566667 
1 0 1:0.12914 2:0.160631 3:0.542857 4:0.566667 
0 1 1:0.043286 2:0.153668 3:0.642857 4:0.166667 
0 1 1:0.027754 2:0.016202 3:0.814286 4:0.166667 
0 1 1:0.055456 2:0.115599 3:0.707143 4:0.166667 
0 1 1:0.053402 2:0.116992 3:0.692857 4:0.166667 
0 1 1:0.060077 2:0.120241 3:0.707143 4:0.166667 
0 1 1:0.034814 2:0.00585 3:0.835714 4:0.166667 
0 1 1:0.052632 2:0.12442 3:0.685714 4:0.166667 
0 1 1:0.077022 2:0.145775 3:0.585714 4:0.133333 
0 1 1:0.153273 2:0.141133 3:0.707143 4:0.166667 
0 1 1:0.057766 2:0.01532 3:0.821429 4:0.166667 
1 0 1:0.139153 2:0.068709 3:0.714286 4:0.6 
0 1 1:0.035944 2:0.100743 3:0.692857 4:0.166667 
0 1 1:0.028241 2:0.026462 3:0.642857 4:0.166667 
1 0 1:0.173556 2:0.162953 3:0.585714 4:0.566667 
0 1 1:0.045186 2:0.026927 3:0.807143 4:0.166667 
0 1 1:0.013607 2:0.034355 3:0.628571 4:0.166667 
0 1 1:0.026958 2:0.143454 3:0.621429 4:0.166667 
0 1 1:0.093761 2:0.130176 3:0.585714 4:0.133333 
0 1 1:0.151014 2:0.156546 3:0.578571 4:0.133333 
0 1 1:0.037997 2:0.007428 3:0.835714 4:0.166667 
0 1 1:0.021823 2:0.07753 3:0.614286 4:0.166667 
0 1 1:0.039538 2:0.018106 3:0.835714 4:0.166667 
1 0 1:0.172529 2:0.155525 3:0.585714 4:0.566667 
0 1 1:0.053145 2:0.084494 3:0.65 4:0.166667 
0 1 1:0.084467 2:0.154596 3:0.678571 4:0.166667 
0 0.9811353751125576 1:0.029294 2:0.021309 3:0.785714 4:0.166667 
1 0 1:0.096534 2:0.138347 3:0.685714 4:0.6 
0 1 1:0.030295 2:0.091458 3:0.714286 4:0.166667 
0 1 1:0.013094 2:0.024605 3:0.614286 4:0.166667 
1 0 1:0.152246 2:0.047354 3:0.528571 4:0.566667 
1 0 1:0.134531 2:0.156453 3:0.535714 4:0.566667 
1 0 1:0.128626 2:0.16156 3:0.685714 4:0.6 
0 1 1:0.04724 2:0.007892 3:0.828571 4:0.166667 
0 1 1:0.0457 2:0.138347 3:0.685714 4:0.166667 
1 0 1:0.115789 2:0.162488 3:0.557143 4:0.566667 
1 0 1:0.084724 2:0.140204 3:0.557143 4:0.566667 
0 1 1:0.03389 2:0.101207 3:0.692857 4:0.166667 
1 0 1:0.069833 2:0.126277 3:0.642857 4:0.6 
0 1 1:0.051348 2:0.022284 3:0.8 4:0.166667 
0 1 1:0.060334 2:0.127205 3:0.707143 4:0.166667 
0 0.637957343392768 1:0.054172 2:0.125812 3:0.671429 4:0.166667 
0 1 1:0.067009 2:0.150882 3:0.714286 4:0.166667 
0 1 1:0.067266 2:0.134633 3:0.6 4:0.133333 
1 0 1:0.160719 2:0.093315 3:0.714286 4:0.6 
0 1 1:0.026187 2:0.112349 3:0.657143 4:0.166667 
1 0 1:0.127343 2:0.163881 3:0.521429 4:0.566667 
1 0 1:0.148395 2:0.131383 3:0.692857 4:0.6 
1 0 1:0.089345 2:0.159703 3:0.65 4:0.6 
0 1 1:0.041078 2:0.110028 3:0.564286 4:0.133333 
1 0 1:0.110141 2:0.119313 3:0.678571 4:0.6 
0 1 1:0.072914 2:0.160631 3:0.592857 4:0.133333 
0 0.9949146694562896 1:0.044929 2:0.029248 3:0.8 4:0.166667 
1 0 1:0.145315 2:0.142061 3:0.578571 4:0.566667 
0 1 1:0.0457 2:0.114206 3:0.685714 4:0.166667 
1 0 1:0.023877 2:0.086351 3:0.507143 4:0.566667 
1 0 1:0.108087 2:0.063603 3:0.678571 4:0.6 
0 1 1:0.040308 2:0.109099 3:0.678571 4:0.166667 
0 1 1:0.088575 2:0.017642 3:0.835714 4:0.166667 
0 1 1:0.023107 2:0.078459 3:0.657143 4:0.166667 
0 1 1:0.031065 2:0.012535 3:0.8 4:0.166667 
1 0 1:0.095507 2:0.079851 3:0.671429 4:0.6 
1 0 1:0.037997 2:0.144383 3:0.642857 4:0.6 
0 1 1:0.086521 2:0.159239 3:0.621429 4:0.133333 
1 0 1:0.091528 2:0.090854 3:0.664286 4:0.6 
1 0 1:0.110398 2:0.159703 3:0.557143 4:0.566667 
1 0 1:0.11353 2:0.021263 3:0.678571 4:0.6 
0 1 1:0.061361 2:0.142061 3:0.671429 4:0.166667 
0 1 1:0.027985 2:0.001857 3:0.85 4:0.166667 
1 0 1:0.102182 2:0.117456 3:0.678571 4:0.6 
1 0 1:0.138228 2:0.109471 3:0.692857 4:0.6 
0 1 1:0.051091 2:0.023677 3:0.807143 4:0.166667 
1 0 1:0.1638 2:0.137419 3:0.685714 4:0.6 
0 1 1:0.087805 2:0.129062 3:0.75 4:0.166667 
0 1 1:0.057766 2:0.013463 3:0.821429 4:0.166667 
0 1 1:0.041438 2:0.108124 3:0.678571 4:0.166667 
1 0 1:0.099872 2:0.142061 3:0.55 4:0.566667 
1 0 1:0.094994 2:0.140204 3:0.642857 4:0.6 
0 1 1:0.078819 2:0.149025 3:0.607143 4:0.133333 
0 1 1:0.04801 2:0.147632 3:0.664286 4:0.166667 
1 0 1:0.15199 2:0.161096 3:0.564286 4:0.566667 
0 1 1:0.088062 2:0.162953 3:0.621429 4:0.133333 
0 1 1:0.055969 2:0.149954 3:0.671429 4:0.166667 
1 0 1:0.165546 2:0.16156 3:0.592857 4:0.566667 
1 0 1:0.110347 2:0.165227 3:0.514286 4:0.566667 
1 0 1:0.184852 2:0.158774 3:0.592857 4:0.566667 
1 0 1:0.136072 2:0.15831 3:0.571429 4:0.566667 
1 0 1:0.124775 2:0.134169 3:0.707143 4:0.6 
1 0 1:0.126316 2:0.159239 3:0.578571 4:0.566667 
1 0 1:0.132478 2:0.161096 3:0.585714 4:0.566667 
0 1 1:0.033633 2:0.093779 3:0.65 4:0.166667 
0 1 1:0.046727 2:0.136955 3:0.657143 4:0.166667 
0 1 1:0.040565 2:0.019963 3:0.8 4:0.166667 
1 0 1:0.121181 2:0.166667 3:0.571429 4:0.566667 
0 1 1:0.032863 2:0.101207 3:0.664286 4:0.166667 
0 1 1:0.052118 2:0.160631 3:0.571429 4:0.133333 
0 1 1:0.045443 2:0.019963 3:0.8 4:0.166667 
0 1 1:0.05122 2:0.121448 3:0.564286 4:0.133333 
1 0 1:0.103466 2:0.13974 3:0.55 4:0.566667 
1 0 1:0.086521 2:0.163881 3:0.55 4:0.566667 
1 0 1:0.135353 2:0.164113 3:0.542857 4:0.566667 
0 1 1:0.029268 2:0.034355 3:0.778571 4:0.166667 
0 1 1:0.012067 2:0.090529 3:0.735714 4:0.166667 
1 0 1:0.122721 2:0.127205 3:0.671429 4:0.6 
0 1 1:0.075481 2:0.130919 3:0.664286 4:0.166667 
0 1 1:0.054942 2:0.143918 3:0.6 4:0.133333 
1 0 1:0.095276 2:0.144475 3:0.714286 4:0.6 
1 0 1:0.086008 2:0.149954 3:0.65 4:0.6 
0 1 1:0.043723 2:0.111188 3:0.692857 4:0.166667 
1 0 1:0.084981 2:0.023213 3:0.742857 4:0.633333 
0 1 1:0.033633 2:0.012999 3:0.8 4:0.166667 
0 1 1:0 2:0.022284 3:0.764286 4:0.166667 
0 1 1:0.046727 2:0.015785 3:0.842857 4:0.166667 
1 0 1:0.130937 2:0 3:0.642857 4:0.6 
1 0 1:0.189217 2:0.024141 3:0.678571 4:0.6 
0 1 1:0.175481 2:0.129851 3:0.678571 4:0.166667 
1 0 1:0.032092 2:0.169452 3:0.55 4:0.566667 
0 0.5099032605646321 1:0.055199 2:0.012071 3:0.857143 4:0.166667 
1 0 1:0.029012 2:0.140204 3:0.635714 4:0.6 
0 0.1177655335228418 1:0.037484 2:0.015785 3:0.821429 4:0.166667 
1 0 1:0.074198 2:0.144383 3:0.635714 4:0.6 
0 1 1:0.051348 2:0.157846 3:0.564286 4:0.133333 
0 1 1:0.005905 2:0.036212 3:0.8 4:0.166667 
0 1 1:0.046213 2:0.151346 3:0.642857 4:0.166667 
1 0 1:0.072144 2:0.116992 3:0.692857 4:0.6 
0 1 1:0.060591 2:0.043175 3:0.785714 4:0.166667 
0 1 1:0.069012 2:0.042897 3:0.807143 4:0.166667 
0 1 1:0.029063 2:0.005292 3:0.778571 4:0.166667 
0 1 1:0.084467 2:0.1026 3:0.578571 4:0.133333 
1 0 1:0.090629 2:0.134169 3:0.692857 4:0.6 
0 1 1:0.0581 2:0.142247 3:0.707143 4:0.166667 
1 0 1:0.173813 2:0.11467 3:0.7 4:0.6 
1 0 1:0.0362 2:0.000464 3:0.585714 4:0.6 
0 1 1:0.015404 2:0.000929 3:0.842857 4:0.166667 
0 1 1:0.033119 2:0.157846 3:0.628571 4:0.166667 
0 1 1:0.043646 2:0.126277 3:0.671429 4:0.166667 
0 1 1:0.039538 2:0.038533 3:0.792857 4:0.166667 
0 1 1:0.072401 2:0.139276 3:0.678571 4:0.166667 
0 1 1:0.057766 2:0.048282 3:0.785714 4:0.166667 
0 1 1:0.074968 2:0.009285 3:0.828571 4:0.166667 
1 0 1:0.133248 2:0.119777 3:0.707143 4:0.6 
0 1 1:0.032606 2:0.108635 3:0.678571 4:0.166667 
0 1 1:0.063415 2:0.144383 3:0.571429 4:0.133333 
1 0 1:0.096431 2:0.082126 3:0.535714 4:0.566667 
0 1 1:0.049294 2:0.035283 3:0.778571 4:0.166667 
1 0 1:0.018614 2:0.142804 3:0.664286 4:0.6 
1 0 1:0.179204 2:0.157846 3:0.6 4:0.566667 
1 0 1:0.106804 2:0.147632 3:0.664286 4:0.6 
0 1 1:0.018742 2:0.020891 3:0.814286 4:0.166667 
1 0 1:0.076765 2:0.083565 3:0.628571 4:0.6 
0 1 1:0.026187 2:0 3:0.828571 4:0.166667 
1 0 1:0.112452 2:0.139276 3:0.657143 4:0.6 
1 0 1:0.016816 2:0.146982 3:0.657143 4:0.6 
1 0 1:0.163286 2:0.123027 3:0.707143 4:0.6 
1 0 1:0.072144 2:0.103064 3:0.542857 4:0.566667 
0 1 1:0.097304 2:0.128598 3:0.721429 4:0.166667 
1 0 1:0.019512 2:0.140669 3:0.514286 4:0.566667 
0 1 1:0.044673 2:0.022284 3:0.814286 4:0.166667 
1 0 1:0.084724 2:0.078923 3:0.621429 4:0.6 
1 0 1:0.142567 2:0.093593 3:0.707143 4:0.6 
1 0 1:0.069063 2:0.037604 3:0.664286 4:0.6 
1 0 1:0.09371 2:0.028784 3:0.757143 4:0.633333 
0 1 1:0.038511 2:0.143918 3:0.642857 4:0.166667 
1 0 1:0.078819 2:0.147632 3:0.635714 4:0.6 
0 1 1:0.039024 2:0.13324 3:0.664286 4:0.166667 
0 1 1:0.033119 2:0.105385 3:0.707143 4:0.166667 
1 0 1:0.091399 2:0.165738 3:0.421429 4:0.533333 
1 0 1:0.058023 2:0.121634 3:0.635714 4:0.6 
1 0 1:0.087291 2:0.142526 3:0.535714 4:0.566667 
1 0 1:0.052375 2:0.114206 3:0.671429 4:0.6 
0 1 1:0.082413 2:0.152739 3:0.557143 4:0.133333 
0 1 1:0.050064 2:0.153668 3:0.6 4:0.133333 
1 0 1:0.022182 2:0.069034 3:0.628571 4:0.6 
1 0 1:0.017715 2:0.04039 3:0.657143 4:0.6 
1 0 1:0.169961 2:0.108635 3:0.692857 4:0.6 
1 0 1:0.094429 2:0.147725 3:0.657143 4:0.6 
1 0 1:0.112118 2:0.141179 3:0.685714 4:0.6 
1 0 1:0.065982 2:0.138347 3:0.657143 4:0.6 
0 1 1:0.039281 2:0.133705 3:0.65 4:0.166667 
0 1 1:0.016431 2:0.01857 3:0.792857 4:0.166667 
1 0 1:0.110398 2:0.155989 3:0.535714 4:0.566667 
0 1 1:0.044416 2:0.011142 3:0.835714 4:0.166667 
0 0.9279842262816274 1:0.110655 2:0.09935 3:0.714286 4:0.166667 
1 0 1:0.100899 2:0.120241 3:0.7 4:0.6 
0 1 1:0.051938 2:0.159424 3:0.707143 4:0.166667 
1 0 1:0.019512 2:0.107707 3:0.664286 4:0.6 
0 1 1:0.049037 2:0.028784 3:0.778571 4:0.166667 
1 0 1:0.165597 2:0.121634 3:0.692857 4:0.6 
1 0 1:0.132734 2:0.160167 3:0.585714 4:0.566667 
0 1 1:0.015148 2:0.026927 3:0.564286 4:0.166667 
0 1 1:0.031322 2:0.122563 3:0.707143 4:0.166667 
1 0 1:0.052118 2:0.016249 3:0.742857 4:0.633333 
1 0 1:0.090886 2:0.081244 3:0.628571 4:0.6 
1 0 1:0.110398 2:0.140204 3:0.564286 4:0.566667 
1 0 1:0.089602 2:0.096565 3:0.678571 4:0.6 
1 0 1:0.102439 2:0.147168 3:0.657143 4:0.6 
0 1 1:0.031836 2:0.096565 3:0.685714 4:0.166667 
1 0 1:0.118357 2:0.13974 3:0.657143 4:0.6 
1 0 1:0.074069 2:0.131523 3:0.55 4:0.566667 
0 1 1:0.04878 2:0.118849 3:0.671429 4:0.166667 
0 1 1:0.024647 2:0.001393 3:0.642857 4:0.166667 
1 0 1:0.057741 2:0.092804 3:0.678571 4:0.6 
1 0 1:0.091142 2:0.000929 3:0.664286 4:0.6 
1 0 1:0.127086 2:0.164345 3:0.585714 4:0.566667 
1 0 1:0.149422 2:0.001857 3:0.55 4:0.566667 
1 0 1:0.137612 2:0.159703 3:0.55 4:0.566667 
0 1 1:0.065725 2:0.032033 3:0.8 4:0.166667 
1 0 1:0.10475 2:0.150418 3:0.564286 4:0.566667 
1 0 1:0.116816 2:0.128134 3:0.657143 4:0.6 
0 1 1:0.030809 2:0.14624 3:0.642857 4:0.166667 
1 0 1:0.107831 2:0.142061 3:0.557143 4:0.566667 
1 0 1:0.090116 2:0.10585 3:0.685714 4:0.6 
1 0 1:0.073171 2:0.125812 3:0.65 4:0.6 
1 0 1:0.072914 2:0.135562 3:0.664286 4:0.6 
0 1 1:0.025931 2:0.027855 3:0.778571 4:0.166667 
1 0 1:0.11656 2:0.168988 3:0.564286 4:0.566667 
1 0 1:0.096534 2:0.089601 3:0.664286 4:0.6 
1 0 1:0.111682 2:0.161096 3:0.564286 4:0.566667 
0 1 1:0.041592 2:0.125348 3:0.7 4:0.166667 
1 0 1:0.062901 2:0.101207 3:0.657143 4:0.6 
0 1 1:0.051605 2:0.132776 3:0.707143 4:0.166667 
1 0 1:0.122721 2:0.149025 3:0.678571 4:0.6 
0 1 1:0.05982 2:0.135097 3:0.7 4:0.166667 
0 1 1:0.089859 2:0.16481 3:0.671429 4:0.166667 
0 0.3572075176206006 1:0.107831 2:0.06546 3:0.778571 4:0.166667 
1 0 1:0.073094 2:0.047679 3:0.678571 4:0.6 
0 1 1:0.039795 2:0.156453 3:0.557143 4:0.133333 
1 0 1:0.033633 2:0.051532 3:0.65 4:0.6 
1 0 1:0.078049 2:0.063138 3:0.635714 4:0.6 
0 1 1:0.065212 2:0.147168 3:0.664286 4:0.166667 
0 1 1:0.070603 2:0.134633 3:0.7 4:0.166667 
0 1 1:0.010526 2:0 3:0.835714 4:0.166667 
1 0 1:0.143825 2:0.151161 3:0.707143 4:0.6 
0 1 1:0.043902 2:0.116063 3:0.528571 4:0.133333 
1 0 1:0.082927 2:0.129991 3:0.671429 4:0.6 
1 0 1:0.084724 2:0.091458 3:0.671429 4:0.6 
1 0 1:0.114506 2:0.104457 3:0.514286 4:0.566667 
1 0 1:0.116046 2:0.144383 3:0.671429 4:0.6 
1 0 1:0.153017 2:0.071495 3:0.671429 4:0.6 
0 1 1:0.074198 2:0.048282 3:0.8 4:0.166667 
1 0 1:0.078562 2:0.088672 3:0.514286 4:0.566667 
1 0 1:0.108344 2:0.058032 3:0.65 4:0.6 
1 0 1:0.092426 2:0.135097 3:0.642857 4:0.6 
1 0 1:0.100385 2:0.137419 3:0.671429 4:0.6 
1 0 1:0.073684 2:0.132312 3:0.528571 4:0.566667 
1 0 1:0.069833 2:0.044568 3:0.678571 4:0.6 
1 0 1:0.103979 2:0.002786 3:0.664286 4:0.6 
1 0 1:0.095507 2:0.12117 3:0.678571 4:0.6 
1 0 1:0.042875 2:0 3:0.642857 4:0.6 
1 0 1:0.065469 2:0.088672 3:0.621429 4:0.6 
0 1 1:0.028241 2:0.010214 3:0.8 4:0.166667 
0 1 1:0.002311 2:0.013463 3:0.778571 4:0.166667 
1 0 1:0.076765 2:0.08403 3:0.507143 4:0.566667 
0 1 1:0.056483 2:0.138347 3:0.664286 4:0.166667 
1 0 1:0.097561 2:0.094708 3:0.671429 4:0.6 
1 0 1:0.102182 2:0.070102 3:0.671429 4:0.6 
1 0 1:0.068036 2:0.115135 3:0.664286 4:0.6 
1 0 1:0.127086 2:0.099814 3:0.678571 4:0.6 
1 0 1:0.016945 2:0.020427 3:0.621429 4:0.6 
0 0.04681575232410617 1:0.015148 2:0.012999 3:0.671429 4:0.166667 
0 1 1:0.008472 2:0.015785 3:0.671429 4:0.166667 
0 1 1:0.031322 2:0.123955 3:0.657143 4:0.166667 
0 1 1:0.029268 2:0.07428 3:0.65 4:0.166667 
1 0 1:0.044929 2:0.005107 3:0.742857 4:0.633333 
1 0 1:0.050321 2:0.058496 3:0.657143 4:0.6 
1 0 1:0.047754 2:0.153203 3:0.657143 4:0.6 
0 1 1:0.030295 2:0.010214 3:0.828571 4:0.166667 
1 0 1:0.139153 2:0.156453 3:0.564286 4:0.566667 
1 0 1:0.062644 2:0.030641 3:0.671429 4:0.6 
0 1 1:0.049807 2:0.12117 3:0.692857 4:0.166667 
1 0 1:0.057253 2:0.066852 3:0.678571 4:0.6 
1 0 1:0.110398 2:0.054782 3:0.685714 4:0.6 
0 1 1:0.073941 2:0.181987 3:0.628571 4:0.133333 
1 0 1:0.121951 2:0.162488 3:0.535714 4:0.566667 
1 0 1:0.088575 2:0.150418 3:0.542857 4:0.566667 
1 0 1:0.092426 2:0.135097 3:0.714286 4:0.6 
1 0 1:0.111425 2:0.06546 3:0.528571 4:0.566667 
1 0 1:0.083697 2:0.12442 3:0.664286 4:0.6 
1 0 1:0.039281 2:0.01532 3:0.75 4:0.633333 
1 0 1:0.097561 2:0.134633 3:0.657143 4:0.6 
1 0 1:0.075995 2:0.056175 3:0.614286 4:0.6 
0 0.258045535078648 1:0.029525 2:0.010214 3:0.814286 4:0.166667 
1 0 1:0.05828 2:0.199164 3:0.657143 4:0.6 
1 0 1:0.127856 2:0.150418 3:0.664286 4:0.6 
1 0 1:0.133504 2:0.143454 3:0.564286 4:0.566667 
1 0 1:0.080873 2:0.075209 3:0.692857 4:0.6 
0 1 1:0.052375 2:0.152275 3:0.642857 4:0.166667 
1 0 1:0.065212 2:0.100279 3:0.671429 4:0.6 
1 0 1:0.107574 2:0.141597 3:0.664286 4:0.6 
1 0 1:0.064698 2:0.093315 3:0.635714 4:0.6 
1 0 1:0.068293 2:0.020427 3:0.6 4:0.6 
1 0 1:0.111682 2:0.146704 3:0.514286 4:0.566667 
1 0 1:0.092426 2:0.095636 3:0.7 4:0.6 
1 0 1:0.010526 2:0.001393 3:0.728571 4:0.633333 
1 0 1:0.06932 2:0.145775 3:0.514286 4:0.566667 
1 0 1:0.067779 2:0.139276 3:0.492857 4:0.566667 
1 0 1:0.056739 2:0.130455 3:0.4 4:0.533333 
1 0 1:0.065469 2:0.065924 3:0.635714 4:0.6 
1 0 1:0.093196 2:0.028784 3:0.628571 4:0.6 
1 0 1:0.052375 2:0.147168 3:0.65 4:0.6 
1 0 1:0.06932 2:0.162488 3:0.642857 4:0.6 
1 0 1:0.07086 2:0.076602 3:0.628571 4:0.6 
0 0.8801522956476797 1:0.055199 2:0 3:0.671429 4:0.166667 
0 1 1:0.042362 2:0.045497 3:0.792857 4:0.166667 
1 0 1:0.075481 2:0.067317 3:0.685714 4:0.6 
0 1 1:0.025674 2:0.077994 3:0.671429 4:0.166667 
1 0 1:0.149936 2:0.081244 3:0.678571 4:0.6 
0 1 1:0.002054 2:0.001857 3:0.814286 4:0.166667 
1 0 1:0.09371 2:0.096565 3:0.664286 4:0.6 
0 1 1:0.055712 2:0.026927 3:0.835714 4:0.166667 
0 1 1:0.071374 2:0 3:0.678571 4:0.166667 
1 0 1:0.067471 2:0.108821 3:0.642857 4:0.6 
0 1 1:0.027728 2:0.005571 3:0.771429 4:0.166667 
1 0 1:0.081386 2:0.063138 3:0.642857 4:0.6 
1 0 1:0.066752 2:0.03389 3:0.664286 4:0.6 
1 0 1:0.166521 2:0.150557 3:0.571429 4:0.566667 
1 0 1:0.083954 2:0.121634 3:0.685714 4:0.6 
1 0 1:0.093453 2:0.049675 3:0.621429 4:0.6 
0 1 1:0.03543 2:0.001857 3:0.85 4:0.166667 
0 1 1:0.02516 2:0.144383 3:0.721429 4:0.166667 
0 1 1:0.055969 2:0.037604 3:0.835714 4:0.166667 
1 0 1:0.03543 2:0.033426 3:0.664286 4:0.6 
0 1 1:0.030552 2:0.031105 3:0.585714 4:0.166667 
1 0 1:0.042105 2:0.107242 3:0.621429 4:0.6 
1 0 1:0.00077 2:0.008357 3:0.621429 4:0.6 
0 1 1:0.013864 2:0.024141 3:0.778571 4:0.166667 
1 0 1:0.051348 2:0.1026 3:0.678571 4:0.6 
0 1 1:0.028755 2:0.002786 3:0.835714 4:0.166667 
0 1 1:0.015661 2:0.000929 3:0.828571 4:0.166667 
0 1 1:0.026444 2:0.020891 3:0.771429 4:0.166667 
1 0 1:0.012837 2:0.018106 3:0.6 4:0.6 
1 0 1:0.062388 2:0.127205 3:0.635714 4:0.6 
0 1 1:0.050321 2:0.013928 3:0.821429 4:0.166667 
1 0 1:0.072144 2:0.093315 3:0.657143 4:0.6 
0 1 1:0.031322 2:0.004178 3:0.85 4:0.166667 
1 0 1:0.166881 2:0.168059 3:0.571429 4:0.566667 
0 1 1:0.039538 2:0.001393 3:0.828571 4:0.166667 
1 0 1:0.109371 2:0.154132 3:0.564286 4:0.566667 
1 0 1:0.040051 2:0.028319 3:0.735714 4:0.633333 
0 1 1:0.069833 2:0.0065 3:0.664286 4:0.166667 
1 0 1:0.12837 2:0.087744 3:0.657143 4:0.6 
0 1 1:0.068806 2:0.131383 3:0.6 4:0.133333 
1 0 1:0.056996 2:0.091922 3:0.614286 4:0.6 
1 0 1:0.124775 2:0.155989 3:0.578571 4:0.566667 
1 0 1:0.150963 2:0.161096 3:0.692857 4:0.6 
1 0 1:0.105777 2:0.188487 3:0.707143 4:0.6 
1 0 1:0.061104 2:0.138812 3:0.657143 4:0.6 
0 1 1:0 2:0 3:0.621429 4:0.166667 
0 1 1:0.063928 2:0.02182 3:0.6 4:0.166667 
1 0 1:0.019512 2:0.029712 3:0.607143 4:0.6 
1 0 1:0.080616 2:0.053389 3:0.685714 4:0.6 
1 0 1:0.048524 2:0.067781 3:0.65 4:0.6 
1 0 1:0.018999 2:0.001857 3:0.642857 4:0.6 
0 1 1:0.030552 2:0.007428 3:0.635714 4:0.166667 
0 1 1:0.034917 2:0.002786 3:0.828571 4:0.166667 
1 0 1:0.076765 2:0.085422 3:0.671429 4:0.6 
1 0 1:0.001027 2:0 3:0.621429 4:0.6 
0 1 1:0.019769 2:0.028319 3:0.835714 4:0.166667 
1 0 1:0.043646 2:0.052925 3:0.6 4:0.6 
1 0 1:0.117843 2:0.070566 3:0.678571 4:0.6 
1 0 1:0.067266 2:0.147168 3:0.514286 4:0.566667 
1 0 1:0.15353 2:0.147168 3:0.664286 4:0.6 
0 1 1:0.027471 2:0.01857 3:0.771429 4:0.166667 
1 0 1:0.194095 2:0.128134 3:0.6 4:0.566667 
0 1 1:0.055969 2:0.022748 3:0.785714 4:0.166667 
1 0 1:0.096791 2:0.09935 3:0.628571 4:0.6 
1 0 1:0.086264 2:0.076137 3:0.628571 4:0.6 
1 0 1:0.062644 2:0.004643 3:0.635714 4:0.6 
0 1 1:0.081643 2:0.150418 3:0.464286 4:0.133333 
1 0 1:0.079846 2:0.155989 3:0.542857 4:0.566667 
1 0 1:0.070603 2:0.069174 3:0.621429 4:0.6 
0 1 1:0.044673 2:0.113742 3:0.7 4:0.166667 
0 1 1:0.077279 2:0.157846 3:0.578571 4:0.133333 
1 0 1:0.055969 2:0.049675 3:0.607143 4:0.6 
1 0 1:0.067009 2:0.04039 3:0.635714 4:0.6 
1 0 1:0.092683 2:0.118849 3:0.657143 4:0.6 
0 1 1:0.031579 2:0.011606 3:0.828571 4:0.166667 
0 1 1:0.026701 2:0.002786 3:0.85 4:0.166667 
0 0.9797193739201038 1:0.023107 2:0.070102 3:0.771429 4:0.166667 
0 1 1:0.041592 2:0.116063 3:0.778571 4:0.166667 
0 1 1:0.028241 2:0.038997 3:0.778571 4:0.166667 
1 0 1:0.031579 2:0.011606 3:0.764286 4:0.633333 
1 0 1:0.03466 2:0.063138 3:0.621429 4:0.6 
0 1 1:0.044673 2:0.078459 3:0.542857 4:0.133333 
1 0 1:0.114506 2:0.006964 3:0.664286 4:0.6 
1 0 1:0.130937 2:0.110956 3:0.65 4:0.6 
1 0 1:0.116046 2:0.100279 3:0.657143 4:0.6 
1 0 1:0.106033 2:0.088672 3:0.65 4:0.6 
0 1 1:0.039795 2:0.008357 3:0.835714 4:0.166667 
1 0 1:0.120924 2:0.11792 3:0.707143 4:0.6 
1 0 1:0.02516 2:0.073352 3:0.621429 4:0.6 
0 1 1:0.040565 2:0.149954 3:0.635714 4:0.166667 
1 0 1:0.125032 2:0.15506 3:0.55 4:0.566667 
1 0 1:0.137099 2:0.139276 3:0.707143 4:0.6 
1 0 1:0.049551 2:0.138812 3:0.635714 4:0.6 
1 0 1:0.06932 2:0.066852 3:0.621429 4:0.6 
1 0 1:0.029012 2:0.136955 3:0.685714 4:0.6 
1 0 1:0.10552 2:0.093779 3:0.7 4:0.6 
1 0 1:0.128883 2:0.097029 3:0.657143 4:0.6 
1 0 1:0.102696 2:0.005107 3:0.664286 4:0.6 
1 0 1:0.080616 2:0.08078 3:0.685714 4:0.6 
1 0 1:0.078562 2:0.082173 3:0.678571 4:0.6 
0 0.7834354958619643 1:0.108344 2:0.071495 3:0.692857 4:0.166667 
1 0 1:0.072401 2:0.059889 3:0.65 4:0.6 
0 1 1:0.046213 2:0.104457 3:0.792857 4:0.166667 
1 0 1:0.131707 2:0.194058 3:0.692857 4:0.6 
1 0 1:0.109114 2:0.16156 3:0.671429 4:0.6 
0 1 1:0.02439 2:0.009749 3:0.821429 4:0.166667 
0 1 1:0.099358 2:0.133705 3:0.692857 4:0.166667 
0 1 1:0.041849 2:0.151346 3:0.521429 4:0.133333 
0 1 1:0.067266 2:0.125812 3:0.728571 4:0.166667 
0 1 1:0.013094 2:0.014392 3:0.821429 4:0.166667 
0 1 1:0.027471 2:0.017177 3:0.835714 4:0.166667 
0 1 1:0.042619 2:0.014856 3:0.821429 4:0.166667 
0 1 1:0.027728 2:0.0065 3:0.835714 4:0.166667 
1 0 1:0.173813 2:0.166667 3:0.585714 4:0.566667 
0 1 1:0.021053 2:0.023213 3:0.807143 4:0.166667 
1 0 1:0.034403 2:0.019963 3:0.614286 4:0.6 
1 0 1:0.154044 2:0.162953 3:0.585714 4:0.566667 
0 1 1:0.038768 2:0.009749 3:0.828571 4:0.166667 
1 0 1:0.098588 2:0.053389 3:0.678571 4:0.6 
1 0 1:0.128113 2:0.153203 3:0.55 4:0.566667 
1 0 1:0.094737 2:0.140204 3:0.542857 4:0.566667 
1 0 1:0.124262 2:0.14299 3:0.671429 4:0.6 
0 1 1:0.060847 2:0.003714 3:0.585714 4:0.166667 
0 1 1:0.034917 2:0.014856 3:0.592857 4:0.166667 
0 1 1:0.042875 2:0.133705 3:0.585714 4:0.133333 
0 1 1:0.031322 2:0.019499 3:0.6 4:0.166667 
1 0 1:0.017202 2:0.064531 3:0.642857 4:0.6 
1 0 1:0.079076 2:0.065924 3:0.65 4:0.6 
1 0 1:0.206162 2:0.216806 3:0.6 4:0.566667 
0 1 1:0.025931 2:0.005571 3:0.821429 4:0.166667 
0 1 1:0.019255 2:0.028784 3:0.664286 4:0.166667 
1 0 1:0.055456 2:0.143918 3:0.628571 4:0.6 
0 1 1:0.039538 2:0.049211 3:0.785714 4:0.166667 
1 0 1:0.137612 2:0.174559 3:0.735714 4:0.6 
1 0 1:0.067266 2:0.060353 3:0.614286 4:0.6 
0 1 1:0.053659 2:0.114206 3:0.514286 4:0.133333 
1 0 1:0.064442 2:0.135562 3:0.55 4:0.566667 
1 0 1:0.090629 2:0.106314 3:0.642857 4:0.6 
1 0 1:0.046727 2:0.063138 3:0.75 4:0.633333 
1 0 1:0.053402 2:0.122098 3:0.664286 4:0.6 
1 0 1:0.076252 2:0.066388 3:0.678571 4:0.6 
1 0 1:0.076765 2:0.14299 3:0.535714 4:0.566667 
1 0 1:0.05828 2:0.083565 3:0.685714 4:0.6 
0 1 1:0.024904 2:0.011142 3:0.821429 4:0.166667 
1 0 1:0.091656 2:0.077994 3:0.65 4:0.6 
1 0 1:0.100128 2:0.168524 3:0.557143 4:0.566667 
0 1 1:0.033376 2:0.023677 3:0.8 4:0.166667 
1 0 1:0.090629 2:0.080316 3:0.521429 4:0.566667 
0 1 1:0.027214 2:0.169916 3:0.65 4:0.166667 
0 1 1:0.054942 2:0.116063 3:0.707143 4:0.166667 
0 1 1:0.033119 2:0.118849 3:0.664286 4:0.166667 
1 0 1:0.074198 2:0.064067 3:0.664286 4:0.6 
1 0 1:0.075995 2:0.085422 3:0.378571 4:0.533333 
1 0 1:0.090372 2:0.148561 3:0.521429 4:0.566667 
1 0 1:0.147112 2:0.097957 3:0.664286 4:0.6 
1 0 1:0.004878 2:0.006035 3:0.642857 4:0.6 
1 0 1:0.015918 2:0.005107 3:0.6 4:0.6 
1 0 1:0.089089 2:0.103528 3:0.628571 4:0.6 
0 1 1:0.060591 2:0.117456 3:0.421429 4:0.133333 
0 1 1:0.066752 2:0.130455 3:0.735714 4:0.166667 
1 0 1:0.095507 2:0.058496 3:0.692857 4:0.6 
0 1 1:0.049294 2:0.138347 3:0.714286 4:0.166667 
1 0 1:0.108858 2:0.103993 3:0.678571 4:0.6 
1 0 1:0.068036 2:0.10585 3:0.635714 4:0.6 
1 0 1:0.065212 2:0.129526 3:0.5 4:0.566667 
0 1 1:0.044416 2:0.016713 3:0.807143 4:0.166667 
1 0 1:0.074711 2:0.031569 3:0.628571 4:0.6 
0 1 1:0.037997 2:0.014856 3:0.778571 4:0.166667 
0 1 1:0.085751 2:0.140204 3:0.614286 4:0.133333 
1 0 1:0 2:0.103528 3:0.471429 4:0.566667 
1 0 1:0.049551 2:0.136026 3:0.621429 4:0.6 
1 0 1:0.060077 2:0.131848 3:0.657143 4:0.6 
1 0 1:0.073427 2:0.130455 3:0.528571 4:0.566667 
1 0 1:0.065469 2:0.128134 3:0.5 4:0.566667 
1 0 1:0.149679 2:0.044568 3:0.7 4:0.6 
1 0 1:0.048524 2:0.148561 3:0.671429 4:0.6 
1 0 1:0.092683 2:0.136026 3:0.507143 4:0.566667 
1 0 1:0.054942 2:0.041783 3:0.621429 4:0.6 
0 1 1:0.009499 2:0.0065 3:0.807143 4:0.166667 
1 0 1:0.086264 2:0.089601 3:0.678571 4:0.6 
0 1 1:0.03466 2:0.0065 3:0.821429 4:0.166667 
1 0 1:0.115276 2:0.160167 3:0.657143 4:0.6 
1 0 1:0.030039 2:0.069174 3:0.671429 4:0.6 
1 0 1:0.108858 2:0.118384 3:0.557143 4:0.566667 
1 0 1:0.057766 2:0.11792 3:0.642857 4:0.6 
1 0 1:0.102953 2:0.150418 3:0.507143 4:0.566667 
1 0 1:0.045186 2:0.030176 3:0.635714 4:0.6 
1 0 1:0.091656 2:0.149025 3:0.542857 4:0.566667 
1 0 1:0.082157 2:0.075673 3:0.492857 4:0.566667 
0 1 1:0.050578 2:0.005571 3:0.828571 4:0.166667 
1 0 1:0.068549 2:0.083101 3:0.621429 4:0.6 
1 0 1:0.075738 2:0.064067 3:0.685714 4:0.6 
0 1 1:0.080616 2:0.072423 3:0.571429 4:0.133333 
1 0 1:0.136072 2:0.0961 3:0.714286 4:0.6 
1 0 1:0.048267 2:0.008357 3:0.75 4:0.633333 
0 1 1:0.011553 2:0.069638 3:0.764286 4:0.166667 
1 0 1:0.056226 2:0.097493 3:0.621429 4:0.6 
1 0 1:0.09371 2:0.135562 3:0.521429 4:0.566667 
1 0 1:0.087035 2:0.070566 3:0.521429 4:0.566667 
0 1 1:0.040308 2:0.007892 3:0.821429 4:0.166667 
1 0 1:0.054172 2:0.076602 3:0.65 4:0.6 
1 0 1:0.102182 2:0.154596 3:0.571429 4:0.566667 
1 0 1:0.063928 2:0.032498 3:0.757143 4:0.633333 
1 0 1:0.078049 2:0.031569 3:0.628571 4:0.6 
1 0 1:0.052375 2:0.100743 3:0.621429 4:0.6 
0 1 1:0.016945 2:0.003714 3:0.828571 4:0.166667 
1 0 1:0.078819 2:0.157382 3:0.664286 4:0.6 
0 1 1:0.051348 2:0.011606 3:0.792857 4:0.166667 
1 0 1:0.071374 2:0.03714 3:0.614286 4:0.6 
0 1 1:0.098845 2:0.017177 3:0.757143 4:0.166667 
1 0 1:0.058793 2:0.038533 3:0.757143 4:0.633333 
0 1 1:0.067009 2:0.019499 3:0.621429 4:0.166667 
1 0 1:0.084211 2:0.1026 3:0.657143 4:0.6 
1 0 1:0.03466 2:0.021727 3:0.592857 4:0.6 
1 0 1:0.093453 2:0.128134 3:0.685714 4:0.6 
1 0 1:0.057253 2:0.036676 3:0.657143 4:0.6 
1 0 1:0.05751 2:0.144383 3:0.685714 4:0.6 
1 0 1:0.060591 2:0.006035 3:0.6 4:0.6 
1 0 1:0.108344 2:0.027855 3:0.628571 4:0.6 
1 0 1:0.059564 2:0.047818 3:0.642857 4:0.6 
1 0 1:0.072144 2:0.058496 3:0.642857 4:0.6 
0 1 1:0.020539 2:0.002321 3:0.821429 4:0.166667 
1 0 1:0.119384 2:0.013928 3:0.535714 4:0.566667 
1 0 1:0.045443 2:0.14624 3:0.55 4:0.566667 
0 1 1:0.02362 2:0.002786 3:0.835714 4:0.166667 
1 0 1:0.096791 2:0.056175 3:0.692857 4:0.6 
1 0 1:0.055199 2:0.026927 3:0.521429 4:0.566667 
1 0 1:0.102696 2:0.05571 3:0.685714 4:0.6 
1 0 1:0.075738 2:0.057567 3:0.678571 4:0.6 
1 0 1:0.100642 2:0.038533 3:0.635714 4:0.6 
1 0 1:0.107574 2:0.032033 3:0.657143 4:0.6 
1 0 1:0.059307 2:0.153203 3:0.671429 4:0.6 
1 0 1:0.121181 2:0.093779 3:0.7 4:0.6 
1 0 1:0.120411 2:0.104921 3:0.707143 4:0.6 
0 1 1:0 2:0 3:0.75 4:0.166667 
1 0 1:0.069576 2:0.055246 3:0.635714 4:0.6 
0 1 1:0.062644 2:0.029712 3:0.521429 4:0.133333 
1 0 1:0.078049 2:0.121634 3:0.657143 4:0.6 
1 0 1:0.061617 2:0.061746 3:0.471429 4:0.566667 
1 0 1:0.056996 2:0.044568 3:0.464286 4:0.566667 
0 1 1:0.094994 2:0.149954 3:0.6 4:0.133333 
0 1 1:0.056483 2:0.019034 3:0.828571 4:0.166667 
0 1 1:0.035944 2:0.004178 3:0.821429 4:0.166667 
1 0 1:0.131451 2:0.162488 3:0.7 4:0.6 
1 0 1:0.08113 2:0.149489 3:0.65 4:0.6 
1 0 1:0.053145 2:0.072888 3:0.614286 4:0.6 
1 0 1:0.089089 2:0.108635 3:0.528571 4:0.566667 
1 0 1:0.010013 2:0.128598 3:0.621429 4:0.6 
0 1 1:0.009243 2:0.045497 3:0.685714 4:0.166667 
1 0 1:0.137612 2:0.156453 3:0.692857 4:0.6 
1 0 1:0.077535 2:0.046425 3:0.635714 4:0.6 
0 1 1:0.043646 2:0.134169 3:0.671429 4:0.166667 
0 1 1:0.024519 2:0.01467 3:0.8 4:0.166667 
1 0 1:0.116816 2:0.042711 3:0.621429 4:0.6 
0 1 1:0.072401 2:0.119313 3:0.578571 4:0.133333 
1 0 1:0.056739 2:0.026462 3:0.642857 4:0.6 
1 0 1:0.08077 2:0.073909 3:0.664286 4:0.6 
0 1 1:0.04647 2:0.011606 3:0.792857 4:0.166667 
1 0 1:0.000154 2:0.000789 3:0.635714 4:0.6 
1 0 1:0.079332 2:0.134633 3:0.664286 4:0.6 
1 0 1:0.092683 2:0 3:0.742857 4:0.633333 
1 0 1:0.183825 2:0.159239 3:0.571429 4:0.566667 
0 1 1:0.026444 2:0.009285 3:0.8 4:0.166667 
1 0 1:0.122978 2:0.058496 3:0.678571 4:0.6 
1 0 1:0.010526 2:0.081244 3:0.657143 4:0.6 
1 0 1:0.158922 2:0.162953 3:0.678571 4:0.6 
1 0 1:0.090372 2:0.04689 3:0.678571 4:0.6 
0 1 1:0.026444 2:0.005571 3:0.814286 4:0.166667 
0 1 1:0.030809 2:0.016249 3:0.814286 4:0.166667 
0 1 1:0.056996 2:0.010214 3:0.842857 4:0.166667 
1 0 1:0.082413 2:0.160631 3:0.657143 4:0.6 
1 0 1:0.14095 2:0.118384 3:0.657143 4:0.6 
0 1 1:0.044159 2:0.017177 3:0.771429 4:0.166667 
0 1 1:0.086521 2:0.169916 3:0.671429 4:0.166667 
1 0 1:0.096791 2:0.165274 3:0.571429 4:0.566667 
1 0 1:0.10475 2:0.133705 3:0.685714 4:0.6 
1 0 1:0.092683 2:0.016713 3:0.664286 4:0.6 
0 1 1:0.035173 2:0.003714 3:0.764286 4:0.166667 
0 1 1:0.073427 2:0.157846 3:0.671429 4:0.166667 
1 0 1:0.053915 2:0.149489 3:0.514286 4:0.566667 
0 1 1:0.029012 2:0.014856 3:0.821429 4:0.166667 
0 1 1:0.021053 2:0.000929 3:0.828571 4:0.166667 
1 0 1:0.136585 2:0.086815 3:0.678571 4:0.6 
1 0 1:0.083184 2:0.090994 3:0.685714 4:0.6 
1 0 1:0.139923 2:0.155989 3:0.564286 4:0.566667 
1 0 1:0.089602 2:0.12442 3:0.642857 4:0.6 
1 0 1:0.063928 2:0.149954 3:0.521429 4:0.566667 
1 0 1:0.078819 2:0.054318 3:0.514286 4:0.566667 
0 1 1:0.037227 2:0.007428 3:0.821429 4:0.166667 
0 1 1:0.048267 2:0.007892 3:0.785714 4:0.166667 
0 1 1:0.049294 2:0.009285 3:0.785714 4:0.166667 
0 1 1:0.049551 2:0.010214 3:0.785714 4:0.166667 
1 0 1:0.080873 2:0.041783 3:0.628571 4:0.6 
1 0 1:0.039538 2:0.050604 3:0.642857 4:0.6 
1 0 1:0.014891 2:0.097493 3:0.6 4:0.6 
0 1 1:0.016945 2:0.033426 3:0.664286 4:0.166667 
1 0 1:0.102439 2:0.083565 3:0.642857 4:0.6 
0 1 1:0.044416 2:0.102136 3:0.75 4:0.166667 
1 0 1:0.091836 2:0.143129 3:0.642857 4:0.6 
0 1 1:0.020282 2:0.00325 3:0.828571 4:0.166667 
1 0 1:0.065212 2:0.138812 3:0.692857 4:0.6 
1 0 1:0.043646 2:0.089136 3:0.621429 4:0.6 
1 0 1:0.101155 2:0.174559 3:0.578571 4:0.566667 
1 0 1:0.122208 2:0.132312 3:0.564286 4:0.566667 
1 0 1:0.067266 2:0.088672 3:0.507143 4:0.566667 
1 0 1:0.06932 2:0.076602 3:0.514286 4:0.566667 
1 0 1:0.024904 2:0.172238 3:0.5 4:0.566667 
0 0.7749545131275382 1:0.157381 2:0.150882 3:0.664286 4:0.166667 
0 1 1:0.077022 2:0.142526 3:0.707143 4:0.166667 
1 0 1:0.098845 2:0.152275 3:0.678571 4:0.6 
1 0 1:0.044852 2:0.01402 3:0.728571 4:0.633333 
1 0 1:0.104493 2:0.151346 3:0.657143 4:0.6 
1 0 1:0.05982 2:0.076137 3:0.671429 4:0.6 
0 1 1:0.01335 2:0.012535 3:0.842857 4:0.166667 
0 1 1:0.113479 2:0.216806 3:0.664286 4:0.166667 
1 0 1:0.07009 2:0.026927 3:0.664286 4:0.6 
1 0 1:0.038768 2:0.012999 3:0.642857 4:0.6 
0 1 1:0.029525 2:0.005107 3:0.85 4:0.166667 
0 1 1:0.046727 2:0.120706 3:0.678571 4:0.166667 
0 1 1:0.033633 2:0.006035 3:0.778571 4:0.166667 
0 1 1:0.068293 2:0.017642 3:0.785714 4:0.166667 
0 1 1:0.040822 2:0.107242 3:0.728571 4:0.166667 
1 0 1:0.071887 2:0.02507 3:0.75 4:0.633333 
0 1 1:0.030039 2:0.138347 3:0.642857 4:0.166667 
0 1 1:0.028755 2:0.111421 3:0.678571 4:0.166667 
1 0 1:0.071887 2:0.159239 3:0.542857 4:0.566667 
1 0 1:0.070347 2:0.144847 3:0.535714 4:0.566667 
1 0 1:0.082413 2:0.153203 3:0.55 4:0.566667 
1 0 1:0.051605 2:0.147632 3:0.635714 4:0.6 
1 0 1:0.186393 2:0.11792 3:0.55 4:0.566667 
0 1 1:0.144031 2:0.088208 3:0.607143 4:0.133333 
1 0 1:0.075481 2:0.01857 3:0.628571 4:0.6 
0 1 1:0.077792 2:0.090529 3:0.535714 4:0.133333 
0 1 1:0.040822 2:0.021356 3:0.814286 4:0.166667 
1 0 1:0.088575 2:0.011142 3:0.642857 4:0.6 
1 0 1:0.072144 2:0.035283 3:0.657143 4:0.6 
1 0 1:0.088062 2:0.076137 3:0.65 4:0.6 
0 1 1:0.03389 2:0.022748 3:0.792857 4:0.166667 
1 0 1:0.08267 2:0.087744 3:0.657143 4:0.6 
0 1 1:0.038768 2:0.02182 3:0.621429 4:0.166667 
1 0 1:0.036714 2:0.054782 3:0.635714 4:0.6 
0 1 1:0.084724 2:0.091458 3:0.678571 4:0.166667 
0 1 1:0.035687 2:0.103993 3:0.692857 4:0.166667 
0 1 1:0.097047 2:0.145775 3:0.714286 4:0.166667 
1 0 1:0.125802 2:0.143454 3:0.564286 4:0.566667 
1 0 1:0.038768 2:0.086351 3:0.614286 4:0.6 
1 0 1:0.085237 2:0.110956 3:0.628571 4:0.6 
0 1 1:0.027728 2:0.010214 3:0.821429 4:0.166667 
1 0 1:0.183569 2:0.138347 3:0.7 4:0.6 
1 0 1:0.122465 2:0.130919 3:0.7 4:0.6 
0 1 1:0.026958 2:0.153203 3:0.578571 4:0.133333 
0 1 1:0.065469 2:0.153203 3:0.692857 4:0.166667 
1 0 1:0.100385 2:0.111421 3:0.521429 4:0.566667 
1 0 1:0.054429 2:0.008821 3:0.6 4:0.6 
1 0 1:0.089602 2:0.130455 3:0.55 4:0.566667 
0 1 1:0.031836 2:0.120706 3:0.685714 4:0.166667 
0 1 1:0.05828 2:0.153203 3:0.65 4:0.166667 
1 0 1:0.089859 2:0.120241 3:0.678571 4:0.6 
0 1 1:0.030809 2:0.012071 3:0.792857 4:0.166667 
1 0 1:0.111938 2:0.111421 3:0.678571 4:0.6 
1 0 1:0.056483 2:0.078923 3:0.671429 4:0.6 
0 1 1:0.034917 2:0.028784 3:0.778571 4:0.166667 
1 0 1:0.102182 2:0.090065 3:0.657143 4:0.6 
0 1 1:0.026444 2:0.006964 3:0.85 4:0.166667 
0 1 1:0.076252 2:0.011142 3:0.821429 4:0.166667 
0 0.9418666421009267 1:0.03697 2:0.000464 3:0.85 4:0.166667 
0 1 1:0.030295 2:0.005107 3:0.835714 4:0.166667 
1 0 1:0.104236 2:0.157846 3:0.692857 4:0.6 
1 0 1:0.096534 2:0.085887 3:0.657143 4:0.6 
0 1 1:0.088318 2:0.023213 3:0.842857 4:0.166667 
1 0 1:0.006418 2:0.053389 3:0.657143 4:0.6 
1 0 1:0.068293 2:0.143454 3:0.65 4:0.6 
0 1 1:0.034403 2:0.094708 3:0.692857 4:0.166667 
0 1 1:0.057766 2:0.010678 3:0.828571 4:0.166667 
1 0 1:0.072657 2:0.078923 3:0.685714 4:0.6 
0 1 1:0.033633 2:0.038997 3:0.771429 4:0.166667 
0 0.05428848018514877 1:0.026701 2:0.123027 3:0.614286 4:0.166667 
0 1 1:0.039024 2:0.112813 3:0.664286 4:0.166667 
0 1 1:0.083184 2:0.137419 3:0.6 4:0.133333 
0 1 1:0.014891 2:0.056175 3:0.635714 4:0.166667 
1 0 1:0.112709 2:0.130919 3:0.528571 4:0.566667 
0 1 1:0.014377 2:0.097493 3:0.657143 4:0.166667 
1 0 1:0.096791 2:0.15831 3:0.55 4:0.566667 
1 0 1:0.051348 2:0.01532 3:0.742857 4:0.633333 
1 0 1:0.094223 2:0.199629 3:0.535714 4:0.566667 
1 0 1:0.026187 2:0.020427 3:0.614286 4:0.6 
1 0 1:0.000513 2:0.001857 3:0.621429 4:0.6 
0 1 1:0.055969 2:0.002786 3:0.828571 4:0.166667 
1 0 1:0.166624 2:0.180594 3:0.571429 4:0.566667 
1 0 1:0.094994 2:0.118849 3:0.664286 4:0.6 
0 1 1:0.052375 2:0.007428 3:0.821429 4:0.166667 
0 1 1:0.036457 2:0.036676 3:0.785714 4:0.166667 
1 0 1:0.065725 2:0.054318 3:0.657143 4:0.6 
1 0 1:0.101412 2:0.165738 3:0.55 4:0.566667 
1 0 1:0.087035 2:0.118849 3:0.664286 4:0.6 
1 0 1:0.08113 2:0.062674 3:0.664286 4:0.6 
1 0 1:0.077535 2:0.052925 3:0.621429 4:0.6 
1 0 1:0.068549 2:0.171773 3:0.542857 4:0.566667 
1 0 1:0.125289 2:0.159703 3:0.521429 4:0.566667 
1 0 1:0.082927 2:0.127669 3:0.685714 4:0.6 
1 0 1:0.097818 2:0.044104 3:0.757143 4:0.633333 
1 0 1:0.075738 2:0.051996 3:0.757143 4:0.633333 
1 0 1:0.078049 2:0.081708 3:0.692857 4:0.6 
1 0 1:0.07086 2:0.09935 3:0.542857 4:0.566667 
0 1 1:0.037741 2:0.02182 3:0.828571 4:0.166667 
0 1 1:0.03543 2:0.009749 3:0.828571 4:0.166667 
0 1 1:0.000257 2:0.012071 3:0.614286 4:0.166667 
0 1 1:0 2:0.010214 3:0.621429 4:0.166667 
0 1 1:0.015148 2:0.01857 3:0.578571 4:0.166667 
1 0 1:0.072657 2:0.012999 3:0.735714 4:0.633333 
1 0 1:0.174326 2:0.143918 3:0.721429 4:0.6 
0 1 1:0.043389 2:0.008357 3:0.828571 4:0.166667 
1 0 1:0.105802 2:0.13454 3:0.642857 4:0.6 
0 1 1:0.066752 2:0.072423 3:0.671429 4:0.166667 
0 1 1:0.046213 2:0.148561 3:0.664286 4:0.166667 
0 0.06047165510890196 1:0.027471 2:0.011142 3:0.8 4:0.166667 
0 1 1:0.052118 2:0.162953 3:0.571429 4:0.133333 
1 0 1:0.070347 2:0.096565 3:0.664286 4:0.6 
0 1 1:0.004621 2:0.014856 3:0.792857 4:0.166667 
0 1 1:0.073171 2:0.17363 3:0.578571 4:0.133333 
0 1 1:0.039024 2:0.037604 3:0.778571 4:0.166667 
1 0 1:0.096277 2:0.062674 3:0.692857 4:0.6 
1 0 1:0.076765 2:0.036212 3:0.671429 4:0.6 
1 0 1:0.075225 2:0.130455 3:0.7 4:0.6 
0 1 1:0.036714 2:0.023213 3:0.842857 4:0.166667 
0 1 1:0.008626 2:0.000279 3:0.821429 4:0.166667 
1 0 1:0.075995 2:0 3:0.635714 4:0.6 
0 1 1:0.018485 2:0.003714 3:0.821429 4:0.166667 
0 1 1:0.078306 2:0.171309 3:0.614286 4:0.133333 
0 1 1:0.023363 2:0.012071 3:0.828571 4:0.166667 
1 0 1:0.091399 2:0.153668 3:0.65 4:0.6 
0 1 1:0.032863 2:0.008821 3:0.65 4:0.166667 
0 1 1:0.034917 2:0.001857 3:0.821429 4:0.166667 
0 1 1:0.030295 2:0.149954 3:0.564286 4:0.133333 
0 1 1:0.023107 2:0.001857 3:0.835714 4:0.166667 
0 1 1:0.039538 2:0.028319 3:0.771429 4:0.166667 
1 0 1:0.084211 2:0.12117 3:0.685714 4:0.6 
1 0 1:0.079076 2:0.073816 3:0.664286 4:0.6 
1 0 1:0.080873 2:0.123027 3:0.685714 4:0.6 
0 1 1:0.025417 2:0.003714 3:0.835714 4:0.166667 
0 1 1:0.021309 2:0.003714 3:0.814286 4:0.166667 
1 0 1:0.149679 2:0.108635 3:0.678571 4:0.6 
0 1 1:0.021309 2:0.019963 3:0.8 4:0.166667 
0 1 1:0.037946 2:0.090808 3:0.757143 4:0.166667 
0 1 1:0.078562 2:0.159239 3:0.692857 4:0.166667 
1 0 1:0.096277 2:0.095636 3:0.685714 4:0.6 
1 0 1:0.069063 2:0.159703 3:0.528571 4:0.566667 
0 1 1:0.061104 2:0.148097 3:0.707143 4:0.166667 
1 0 1:0.106033 2:0.096565 3:0.5 4:0.566667 
0 1 1:0.088575 2:0.149489 3:0.55 4:0.133333 
1 0 1:0.063158 2:0.138347 3:0.685714 4:0.6 
1 0 1:0.083184 2:0.047818 3:0.764286 4:0.633333 
1 0 1:0.096021 2:0.150418 3:0.521429 4:0.566667 
0 1 1:0.036714 2:0.149025 3:0.685714 4:0.166667 
0 1 1:0.030039 2:0.006964 3:0.85 4:0.166667 
1 0 1:0.128113 2:0 3:0.757143 4:0.633333 
1 0 1:0.065212 2:0.020891 3:0.657143 4:0.6 
0 1 1:0.027214 2:0.001857 3:0.757143 4:0.166667 
0 1 1:0.007445 2:0.004643 3:0.75 4:0.166667 
1 0 1:0.058793 2:0.084494 3:0.628571 4:0.6 
1 0 1:0.068036 2:0.132312 3:0.628571 4:0.6 
0 1 1:0.016175 2:0.007892 3:0.807143 4:0.166667 
1 0 1:0.04801 2:0.047354 3:0.642857 4:0.6 
1 0 1:0.101669 2:0.123491 3:0.557143 4:0.566667 
1 0 1:0.09525 2:0.170845 3:0.535714 4:0.566667 
1 0 1:0.085237 2:0.022748 3:0.65 4:0.6 
0 1 1:0.023107 2:0.070566 3:0.628571 4:0.166667 
0 1 1:0.027214 2:0.091922 3:0.692857 4:0.166667 
1 0 1:0.107831 2:0.069174 3:0.678571 4:0.6 
1 0 1:0.136329 2:0.042711 3:0.521429 4:0.566667 
1 0 1:0.155584 2:0.121634 3:0.692857 4:0.6 
1 0 1:0.070603 2:0.059889 3:0.678571 4:0.6 
0 1 1:0.032349 2:0.022748 3:0.628571 4:0.166667 
0 1 1:0.002054 2:0.023677 3:0.664286 4:0.166667 
0 1 1:0.002054 2:0.023677 3:0.664286 4:0.166667 
0 1 1:0.002567 2:0.023677 3:0.678571 4:0.166667 
1 0 1:0.058537 2:0.03389 3:0.742857 4:0.633333 
1 0 1:0.093196 2:0.16156 3:0.678571 4:0.6 
1 0 1:0.094223 2:0.109099 3:0.685714 4:0.6 
0 1 1:0.029782 2:0.016713 3:0.828571 4:0.166667 
1 0 1:0.079076 2:0.025534 3:0.75 4:0.633333 
1 0 1:0.114763 2:0.114206 3:0.564286 4:0.566667 
1 0 1:0.084211 2:0.067317 3:0.678571 4:0.6 
1 0 1:0.000513 2:0.149025 3:0.514286 4:0.566667 
0 1 1:0.02208 2:0.019963 3:0.771429 4:0.166667 
0 1 1:0.030809 2:0.02182 3:0.778571 4:0.166667 
0 1 1:0.033376 2:0.024605 3:0.778571 4:0.166667 
0 1 1:0.016945 2:0.019963 3:0.785714 4:0.166667 
0 1 1:0.029012 2:0.025534 3:0.778571 4:0.166667 
1 0 1:0.024134 2:0.018106 3:0.642857 4:0.6 
1 0 1:0.101155 2:0.125812 3:0.678571 4:0.6 
1 0 1:0.069576 2:0.021356 3:0.671429 4:0.6 
1 0 1:0.168164 2:0.139276 3:0.571429 4:0.566667 
1 0 1:0.144288 2:0.087279 3:0.7 4:0.6 
1 0 1:0.02439 2:0.036676 3:0.5 4:0.566667 
0 1 1:0.076508 2:0.034355 3:0.642857 4:0.166667 
1 0 1:0.090886 2:0.164345 3:0.564286 4:0.566667 
1 0 1:0.060334 2:0.019963 3:0.614286 4:0.6 
1 0 1:0.107831 2:0.164345 3:0.535714 4:0.566667 
0 1 1:0.020282 2:0.065924 3:0.685714 4:0.166667 
1 0 1:0.077022 2:0.107242 3:0.671429 4:0.6 
1 0 1:0.091142 2:0.128598 3:0.642857 4:0.6 
1 0 1:0.198716 2:0.189879 3:0.7 4:0.6 
1 0 1:0.098331 2:0.100279 3:0.692857 4:0.6 
0 1 1:0.104236 2:0.026927 3:0.657143 4:0.166667 
1 0 1:0.066752 2:0.06221 3:0.628571 4:0.6 
0 1 1:0.032349 2:0.019499 3:0.771429 4:0.166667 
0 1 1:0.029525 2:0.021356 3:0.778571 4:0.166667 
1 0 1:0.030809 2:0.096565 3:0.607143 4:0.6 
0 0.04510867075407532 1:0.017972 2:0.002786 3:0.85 4:0.166667 
1 0 1:0.115789 2:0.148097 3:0.557143 4:0.566667 
0 1 1:0.07163 2:0.030641 3:0.792857 4:0.166667 
1 0 1:0.004108 2:0.081244 3:0.75 4:0.633333 
1 0 1:0.038511 2:0.024605 3:0.742857 4:0.633333 
0 1 1:0.075481 2:0.010214 3:0.814286 4:0.166667 
1 0 1:0.063671 2:0.019034 3:0.664286 4:0.6 
0 1 1:0.032092 2:0.112349 3:0.65 4:0.166667 
1 0 1:0.054172 2:0.083565 3:0.664286 4:0.6 
1 0 1:0.033376 2:0.089601 3:0.528571 4:0.566667 
1 0 1:0.072401 2:0.162488 3:0.514286 4:0.566667 
1 0 1:0.071374 2:0.079387 3:0.528571 4:0.566667 
1 0 1:0.069833 2:0.130919 3:0.521429 4:0.566667 
1 0 1:0.103723 2:0.100279 3:0.65 4:0.6 
1 0 1:0.029525 2:0.064531 3:0.65 4:0.6 
0 1 1:0.030552 2:0.036212 3:0.635714 4:0.166667 
0 1 1:0.049551 2:0.012071 3:0.792857 4:0.166667 
1 0 1:0.099615 2:0.145311 3:0.514286 4:0.566667 
0 1 1:0.041592 2:0.110492 3:0.664286 4:0.166667 
1 0 1:0.140693 2:0.06221 3:0.707143 4:0.6 
0 1 1:0.012323 2:0.004643 3:0.757143 4:0.166667 
1 0 1:0.028498 2:0.041783 3:0.6 4:0.6 
0 1 1:0.034146 2:0.030176 3:0.621429 4:0.166667 
